{"biases":{"0":{"0":-0.39272353420000006,"1":0.0753860039199999,"2":0.3724008455,"3":-0.68629248688,"4":-0.12689982316,"5":-0.37135924414,"lenght":6},"1":{"0":0.2838133951600001,"1":0.2253479859199999,"2":0.4138466459200001,"3":0.10796985937999994,"lenght":4},"2":{"0":-0.3851604673,"1":0.5767697719,"2":0.26036003867999996,"3":-0.44693660655999995,"4":0.04427266342000005,"5":0.17396159054,"6":-0.1371111875,"7":-0.38032559714,"lenght":8},"lenght":3},"weights":{"0":{"0":{"0":0.56785382554,"1":0.19412219896000002,"2":-0.05393772900000002,"3":-0.68789035132,"4":-0.19955284312000002,"5":0.01881708390000006,"lenght":8},"1":{"0":0.11043370782000002,"1":-0.31735979964000005,"2":-0.11120699758000008,"3":0.16493966274,"4":-0.66748286218,"5":-0.03633854666000004,"lenght":8},"2":{"0":-0.24406940479999994,"1":0.32838675753999996,"2":0.39308646719999984,"3":0.24572132489999993,"4":-0.26778511429999996,"5":0.14944926124000002,"lenght":8},"3":{"0":0.2474068538999999,"1":0.5313308113999999,"2":-0.89024353608,"3":-0.6779567121,"4":-0.14488393979999997,"5":-0.53309675962,"lenght":8},"4":{"0":-0.40837292835999994,"1":-0.75815191432,"2":-0.50065519602,"3":-0.49197208286,"4":0.58996606442,"5":0.3588554461,"lenght":8},"5":{"0":-0.7099764214,"1":0.14501989026,"2":-0.7998223546400001,"3":-0.46685859007999997,"4":0.41288444488,"5":-0.03591963808,"lenght":8},"6":{"0":0.25195849382,"1":0.1998730583,"2":0.25657612196,"3":-0.20564850375999993,"4":0.32186828072,"5":-0.39435183432,"lenght":8},"7":{"0":0.06096785518000003,"1":-0.6765906585,"2":0.5838904832399999,"3":-0.27659077167999996,"4":0.26913066639999994,"5":-0.07453972516000001,"lenght":8},"lenght":8},"1":{"0":{"0":0.2889912738199999,"1":-0.14542682826,"2":0.36152865944000007,"3":-0.53377118926,"lenght":6},"1":{"0":0.002031722700000002,"1":-0.6215160713,"2":-0.56974327212,"3":-0.31200221258000005,"lenght":6},"2":{"0":0.08879493447999998,"1":0.3909358668,"2":-0.12322741638000004,"3":0.33402813985999996,"lenght":6},"3":{"0":0.22623218232000006,"1":-0.3007325062199999,"2":-0.42989149792,"3":0.3451455817399999,"lenght":6},"4":{"0":-0.14885944762,"1":-0.7509049103400001,"2":-0.4109029220199999,"3":-0.10538070162,"lenght":6},"5":{"0":-0.38580118497999993,"1":0.75887539878,"2":0.25882864022,"3":0.11944420415999993,"lenght":6},"lenght":6},"2":{"0":{"0":-0.13680967773999997,"1":-0.78837206244,"2":-0.13169678640000002,"3":0.24977695056000007,"4":-0.16083257406000004,"5":-0.7307844982,"6":0.6657747383199999,"7":0.35676236076,"lenght":4},"1":{"0":0.5751062742,"1":0.38735778721999997,"2":-0.31265459348,"3":-0.35760598379999997,"4":-0.19257471869999998,"5":0.3433094682799999,"6":-0.5994048423799999,"7":-0.5918237010399999,"lenght":4},"2":{"0":-0.0017398823799999602,"1":-0.30949729912,"2":0.5382511570199999,"3":0.09141383887999995,"4":-0.4308669947399999,"5":-0.13836529685999996,"6":0.61245804304,"7":-0.59121699676,"lenght":4},"3":{"0":0.46855938098,"1":0.5400180820599999,"2":-0.17415360332,"3":0.33308760437999996,"4":-0.75776476772,"5":-0.8072543252000001,"6":-0.76083799276,"7":-0.5780195398599999,"lenght":4},"lenght":4},"lenght":3}}