{"biases":{"0":{"0":-0.8200000000000001,"1":0.6399999999999999,"2":-0.8,"3":-0.52,"4":0.040000000000000036,"5":0.7,"lenght":6},"1":{"0":-0.21999999999999997,"1":0.020000000000000018,"2":-0.52,"3":-0.020000000000000018,"lenght":4},"2":{"0":0.41999999999999993,"1":-0.12,"2":0.6399999999999999,"3":0.5800000000000001,"4":0.45999999999999996,"5":-0.5800000000000001,"6":0.19999999999999996,"7":0.8200000000000001,"lenght":8},"lenght":3},"weights":{"0":{"0":{"0":0.45999999999999996,"1":-0.14,"2":-0.62,"3":0.8,"4":-0.18000000000000005,"5":0.7,"lenght":6},"1":{"0":-0.52,"1":-0.45999999999999996,"2":-0.020000000000000018,"3":-0.26,"4":-0.96,"5":0.8799999999999999,"lenght":6},"2":{"0":-0.43999999999999995,"1":0.1200000000000001,"2":0.8999999999999999,"3":-0.7,"4":0.17999999999999994,"5":-0.86,"lenght":6},"3":{"0":-0.72,"1":0.08000000000000007,"2":0.26,"3":-0.64,"4":0.5,"5":-0.72,"lenght":6},"4":{"0":-0.45999999999999996,"1":-0.92,"2":-0.4,"3":0.78,"4":-0.14,"5":-0.64,"lenght":6},"5":{"0":0.10000000000000009,"1":0.3600000000000001,"2":-0.72,"3":-0.48,"4":0.15999999999999992,"5":0.10000000000000009,"lenght":6},"6":{"0":-0.76,"1":0.6399999999999999,"2":-0.30000000000000004,"3":0.21999999999999997,"4":0.41999999999999993,"5":0.78,"lenght":6},"7":{"0":-0.86,"1":-1.0,"2":-0.09999999999999998,"3":-0.96,"4":0.3400000000000001,"5":0.1200000000000001,"lenght":6},"lenght":8},"1":{"0":{"0":-0.24,"1":0.5800000000000001,"2":-0.16000000000000003,"3":-0.5800000000000001,"lenght":4},"1":{"0":-0.5800000000000001,"1":0.7,"2":-0.21999999999999997,"3":0.52,"lenght":4},"2":{"0":0.08000000000000007,"1":0.06000000000000005,"2":-0.96,"3":0.28,"lenght":4},"3":{"0":0.21999999999999997,"1":0.32000000000000006,"2":-0.06000000000000005,"3":-0.040000000000000036,"lenght":4},"4":{"0":0.5800000000000001,"1":0.3999999999999999,"2":-0.26,"3":0.74,"lenght":4},"5":{"0":-0.56,"1":0.6399999999999999,"2":0.78,"3":0.8,"lenght":4},"lenght":6},"2":{"0":{"0":0.5,"1":0.52,"2":0.74,"3":0.32000000000000006,"4":-0.84,"5":-0.42000000000000004,"6":0.74,"7":-0.42000000000000004,"lenght":8},"1":{"0":0.32000000000000006,"1":0.56,"2":-0.9,"3":-0.6,"4":-0.36,"5":0.17999999999999994,"6":0.7,"7":-0.09999999999999998,"lenght":8},"2":{"0":0.56,"1":0.6799999999999999,"2":0.8600000000000001,"3":0.1399999999999999,"4":-0.88,"5":-0.4,"6":-0.12,"7":-0.42000000000000004,"lenght":8},"3":{"0":-0.76,"1":0.72,"2":-0.62,"3":-0.94,"4":0.78,"5":0.8999999999999999,"6":-0.9,"7":-0.6799999999999999,"lenght":8},"lenght":4},"lenght":3}}