{"biases":{"0":{"0":0.699999004297334,"1":0.7000020215579508,"10":0.7000000012733109,"11":0.6999999976551404,"12":0.7000000007982973,"13":0.7000000013203119,"14":0.7000000006128249,"15":0.6999999999588608,"16":0.6999999999451673,"17":0.6999999999927324,"18":0.6999999999454377,"19":0.6999999999787238,"2":0.6999985824412331,"20":0.6999999999848273,"21":0.6999999999972911,"3":0.6999958951282818,"4":0.6999960713898321,"5":0.6999984373784783,"6":0.6999997637544507,"7":0.6999998704180052,"8":0.6999999639022502,"9":0.6999999759709379,"lenght":22},"1":{"0":0.6999753315076881,"1":0.6999739979072978,"10":0.6999999252475458,"11":0.6999998218622482,"12":0.6999996504802225,"13":0.6999996330158018,"14":0.6999996689844936,"15":0.6999999111949018,"2":0.6999996832386838,"3":0.7000018596088748,"4":0.7000009900912194,"5":0.7000002602685826,"6":0.6999994311489909,"7":0.6999998703029725,"8":0.6999992444036922,"9":0.69999986064221,"lenght":16},"2":{"0":0.7003078908369974,"1":0.6999154455397367,"10":0.7000002077727805,"11":0.700000050772792,"2":0.7000483756611503,"3":0.7000224754916505,"4":0.7000003111796161,"5":0.7000010837937387,"6":0.7000013314897989,"7":0.7000010026991226,"8":0.7000002608055027,"9":0.7000001316357624,"lenght":12},"3":{"0":0.7062945295368457,"1":0.7058105045930615,"2":0.6908710760637843,"3":0.6991752443575017,"4":0.6999529090274366,"5":0.7000753630056146,"6":0.7000038514210656,"7":0.7000027095618669,"lenght":8},"4":{"0":0.3213307821211906,"1":0.5054454224873278,"2":1.3378046593713975,"3":1.5125046646891744,"4":1.029191401602132,"lenght":5},"5":{"0":4.592555243959263,"1":2.1188165467465168,"2":-0.3992332941927668,"3":1.2282806907264703,"lenght":4},"lenght":6},"weights":{"0":{"0":{"0":-0.48999978386812887,"1":-0.2400008220126161,"2":0.7699995340601336,"3":0.890000287781537,"4":0.009999833507923514,"5":-0.33000094075803005,"6":-0.7899996619694039,"7":0.619999967567356,"lenght":8},"1":{"0":0.00999999148815494,"1":-0.5399988974589705,"2":-0.9599991946012455,"3":-0.019999979552499443,"4":0.29000072527766113,"5":-0.3499986992365403,"6":-0.18999991737801675,"7":4.7590442842490417e-07,"lenght":8},"10":{"0":0.5800000000883748,"1":0.3500000005438817,"2":0.8600000005909753,"3":-0.0499999998421795,"4":-0.19999999978255856,"5":0.8700000006356223,"6":-0.9899999998101553,"7":0.3500000003114791,"lenght":8},"11":{"0":-0.21999999968803663,"1":0.8999999980585542,"2":-0.06000000079996743,"3":6.259659445933734e-10,"4":0.8099999988925284,"5":-0.8700000022067718,"6":-0.34999999909190593,"7":-0.6400000003604116,"lenght":8},"12":{"0":0.3200000000883271,"1":-0.7299999997445437,"2":-0.5899999996185993,"3":-0.6099999998217018,"4":0.460000000113353,"5":-0.07999999968236823,"6":-0.5599999997324216,"7":0.5500000002134737,"lenght":8},"13":{"0":0.6100000000336128,"1":0.1800000006416106,"2":-0.8599999994207675,"3":0.6200000000898492,"4":-0.5699999996975729,"5":-0.7699999992091472,"6":0.38000000020926233,"7":0.5700000002575495,"lenght":8},"14":{"0":0.47000000001738934,"1":0.9000000002995477,"2":0.29000000026083966,"3":-0.7199999999650462,"4":-0.6899999998405514,"5":0.960000000361708,"6":-0.28999999992043274,"7":-0.8599999998655438,"lenght":8},"15":{"0":-0.5199999999750746,"1":0.14999999992201557,"2":0.46999999999695474,"3":-0.10999999994414422,"4":-0.49000000004494987,"5":-0.970000000077597,"6":0.7200000000978803,"7":0.05999999999475747,"lenght":8},"16":{"0":-0.6599999999710172,"1":0.6899999999096201,"2":0.2399999999915631,"3":0.19000000005884438,"4":0.6299999999492302,"5":-0.13000000009487503,"6":-0.3499999999052646,"7":-0.5300000000018544,"lenght":8},"17":{"0":0.19000000001611497,"1":0.6899999999622383,"2":-0.8499999999949966,"3":0.35000000003284326,"4":-0.780000000021162,"5":0.23999999996218385,"6":-0.12999999994649955,"7":0.5000000000036927,"lenght":8},"18":{"0":0.4000000000068586,"1":0.15999999995287742,"2":-0.4000000000175498,"3":0.12000000001702793,"4":0.7999999999718617,"5":-0.8300000000503743,"6":0.5700000000304309,"7":-0.040000000012071095,"lenght":8},"19":{"0":-0.8599999999938346,"1":0.7299999999736012,"2":-0.850000000004287,"3":0.330000000015001,"4":-0.8700000000166401,"5":-0.19000000002596662,"6":-0.42999999997299715,"7":0.8099999999942343,"lenght":8},"2":{"0":-0.4499998475709431,"1":0.4199990013738113,"2":-0.44000056319084246,"3":-0.359999775727414,"4":-0.10000046034582005,"5":0.5799988551806311,"6":0.020000263455341883,"7":0.7299997755082392,"lenght":8},"20":{"0":0.9300000000014373,"1":0.9299999999879988,"2":-0.14000000000524987,"3":0.060000000003672914,"4":-0.6300000000067384,"5":-0.8200000000126749,"6":0.8000000000068744,"7":-0.060000000003627596,"lenght":8},"21":{"0":-0.31999999999963574,"1":-0.6000000000023245,"2":-0.31000000000091804,"3":0.12000000000083158,"4":0.3999999999988056,"5":0.9899999999975194,"6":0.7600000000014675,"7":0.14999999999945193,"lenght":8},"3":{"0":0.3700002770330701,"1":-0.16000263169521944,"2":-0.45000165700971206,"3":0.4100003696252722,"4":-0.48000132051081934,"5":0.1899969453477035,"6":-0.20999960742049958,"7":-0.9400007360179907,"lenght":8},"4":{"0":-0.7999998702905466,"1":-0.21000232987514297,"2":-0.36000160373658285,"3":0.3600001578758699,"4":0.5599987785346131,"5":-0.8600027165431722,"6":0.9800001543897163,"7":0.17999921498480645,"lenght":8},"5":{"0":-0.5799999699276637,"1":-0.5000009060782542,"2":0.3099993643872429,"3":-0.15999995841005224,"4":0.9899995056942563,"5":-0.8600010568382026,"6":0.010000045520960425,"7":0.2499996720152934,"lenght":8},"6":{"0":0.9400000051929928,"1":-0.2000001431432109,"2":0.3799999049857622,"3":0.21000001346819117,"4":0.5799999238737688,"5":0.5999998366596356,"6":-0.2599999745022019,"7":0.8599999485330574,"lenght":8},"7":{"0":-0.8999999966239469,"1":0.12999992376371827,"2":0.6399999473160175,"3":-0.47999999520221526,"4":-0.5700000414619026,"5":-0.19000008845280378,"6":0.5700000060450022,"7":-0.2900000273236721,"lenght":8},"8":{"0":-0.11999999890242409,"1":0.08999997843789087,"2":-0.6700000146735101,"3":0.5800000016638472,"4":0.4699999887093588,"5":0.9299999749270378,"6":0.6600000020829746,"7":0.27999999266619796,"lenght":8},"9":{"0":0.8600000006420901,"1":-0.3400000146222663,"2":-0.9500000094571234,"3":0.8400000013543681,"4":0.7799999917601135,"5":0.7399999829800937,"6":-0.9499999980384369,"7":-0.7200000049933979,"lenght":8},"lenght":22},"1":{"0":{"0":-0.4900084971008593,"1":-0.2400043863624876,"10":0.10998675276570885,"11":0.6899863318749758,"12":-0.8900109200092626,"13":-0.5000056918179057,"14":-0.9900111248220685,"15":0.3899921878665446,"16":0.07998887295157815,"17":-0.4500115129585146,"18":0.4199911266886863,"19":-0.4400081133188794,"2":0.7699926848460794,"20":-0.36000615323254687,"21":-0.10000805777717328,"3":0.8899950533460743,"4":0.00999734939375107,"5":-0.33000174711163677,"6":-0.7900035224565587,"7":0.619996314111218,"8":-0.30000614623667554,"9":0.5399938177390033,"lenght":22},"1":{"0":0.7199911262820933,"1":-0.40000431912927437,"10":-0.9400130064396253,"11":0.7699865426973683,"12":-0.5500101428068291,"13":0.16999571103868494,"14":0.30998922813224644,"15":0.9399927526414601,"16":0.8999891065608292,"17":0.28998855560500153,"18":0.31999192088740214,"19":0.5399925378529453,"2":0.07999250252225976,"20":-0.5800053831751281,"21":-0.500007166905086,"3":0.3699948129993085,"4":-0.16000243651749319,"5":-0.45000131217823347,"6":0.4099974397740323,"7":-0.4800030959598059,"8":0.18999478414820362,"9":-0.21000508868474796,"lenght":22},"10":{"0":-0.45000004493491724,"1":-0.7600000405079685,"10":0.8599999581401102,"11":-0.8500000199239222,"12":0.7299999823844661,"13":-0.45000005998609416,"14":0.8999999906193922,"15":0.32999996612717636,"16":-0.9500000059529422,"17":-0.41000000086897925,"18":0.7599999710307146,"19":0.24999998556261194,"2":-0.9300000195265592,"20":0.339999956571819,"21":-0.24000004948782197,"3":0.9899999869562941,"4":0.3499999628684232,"5":0.4299999541651518,"6":-0.06000008278136033,"7":-0.1200000720135532,"8":-0.7300000869938819,"9":0.6799999324943713,"lenght":22},"11":{"0":0.8799998833933222,"1":-0.8300001178149322,"10":-0.5800001600445793,"11":-0.14000011651143043,"12":0.09999987587394679,"13":-0.8500002304062502,"14":0.5399998998546597,"15":0.9299998542039968,"16":0.03999992229237946,"17":-0.9100000652294793,"18":0.5399998561956562,"19":0.14999990033686247,"2":-0.9400000627340558,"20":-0.5700001678831889,"21":-0.5500001802892931,"3":0.8699999553775917,"4":0.09999990158192003,"5":0.8899998752961142,"6":-0.24000024409264265,"7":0.2899998168315074,"8":-0.7600002269415723,"9":-0.9200002182442925,"lenght":22},"12":{"0":-0.8400001666070347,"1":-0.24000013338102572,"10":0.4399997674668795,"11":-0.790000194927984,"12":0.009999822569847824,"13":0.31999976946758146,"14":-0.030000158182254485,"15":-0.5400001758804734,"16":0.9399998586406889,"17":0.8799998661359263,"18":-0.4400001809167861,"19":-0.2200001386851065,"2":-0.21000010976757763,"20":-0.6200001845328121,"21":0.28999978836492163,"3":0.589999925037616,"4":0.26999989376843025,"5":-0.17000012141862786,"6":0.4799997659522229,"7":0.5899998104063091,"8":-0.45000024638519215,"9":-0.8300002296157636,"lenght":22},"13":{"0":0.3999998341028825,"1":0.8799998670787942,"10":-0.23000025987574388,"11":-0.5000002347156114,"12":0.9499997815903379,"13":-0.37000024816879384,"14":-0.030000202248934967,"15":-0.3000002019024968,"16":-0.3900001836571171,"17":-0.8900001796394799,"18":0.3699997854892267,"19":0.7199998224730936,"2":0.22999987945788736,"20":-0.9300002079116362,"21":-0.7600002344193294,"3":-0.3800000843730358,"4":-0.45000010295796766,"5":-0.1100001147015012,"6":-0.9700002260363629,"7":0.9599998272229918,"8":-0.2400002338496764,"9":0.5699997625470904,"lenght":22},"14":{"0":-0.240000130430675,"1":0.28999990953427013,"10":-0.5200002093061823,"11":0.1599998018015695,"12":-0.7300001747641724,"13":-0.290000160452891,"14":0.26999983491915525,"15":-0.1400001469843751,"16":-0.7800001573688006,"17":0.6299998412219736,"18":-0.30000016255010237,"19":0.8399998560461448,"2":-0.14000010631040094,"20":-0.5700001476313276,"21":-0.3200001751384232,"3":-0.8300000706917116,"4":0.37999992949931705,"5":0.34999992822033865,"6":0.46999986398372007,"7":0.6699998857619727,"8":0.5599998368511804,"9":-0.8600001583540663,"lenght":22},"15":{"0":-0.5100000368295244,"1":0.009999973146252795,"10":0.9399999413780793,"11":-0.2000000548638648,"12":-0.1400000493808352,"13":-0.03000004875360175,"14":0.2499999535038005,"15":-0.30000004279247217,"16":0.14999995654424403,"17":-0.43000004328017305,"18":-0.130000046559514,"19":0.9899999601225674,"2":-0.4100000286186723,"20":-0.6700000426990175,"21":0.6299999503888056,"3":0.179999980512411,"4":0.9699999796004678,"5":0.6799999785643572,"6":-0.31000004203760406,"7":0.26999996643091695,"8":-0.43000004706885187,"9":0.33999995274350625,"lenght":22},"2":{"0":0.9799998941734613,"1":-0.030000039503973314,"10":0.5799998600907929,"11":0.5999998387287842,"12":-0.26000009803306307,"13":0.8600000209490608,"14":0.6299998650916575,"15":-0.6100000644893542,"16":0.05999986459180374,"17":0.11999984412971147,"18":-0.03000006470247437,"19":-0.4900000689566406,"2":0.8999999028110425,"20":-0.35000002732385577,"21":-0.08000003391132884,"3":-0.4500000746231652,"4":-0.16000000275617715,"5":-0.5599999777908707,"6":0.9400000390236511,"7":-0.19999997522826984,"8":0.3800000327091137,"9":0.21000001667651266,"lenght":22},"3":{"0":0.800000653048513,"1":-0.9099996471699864,"10":-0.339998997877835,"11":-0.9499989852975346,"12":0.8400008182060583,"13":0.7800004828242559,"14":0.7400008287415349,"15":-0.9499993915560059,"16":-0.7199991779217443,"17":0.1600008455365116,"18":-0.05999931737284177,"19":0.16000061309795477,"2":-0.3399994544715594,"20":-0.3399995037121967,"21":0.7900006369467648,"3":0.19000037082728868,"4":-0.7999997775267471,"5":-0.35999983686963966,"6":0.8600003297472164,"7":0.5600003224942154,"8":-0.27999948057451346,"9":0.8600005178084503,"lenght":22},"4":{"0":0.8700003449251029,"1":-0.9899998166563923,"10":0.030000535224789893,"11":0.41000054601070063,"12":0.32000044114883447,"13":-0.7299997490277855,"14":-0.5899995550581608,"15":-0.6099996780729082,"16":0.4600004433911313,"17":-0.07999954437196458,"18":-0.5599996359078546,"19":0.5500003286165365,"2":0.3500002917651505,"20":-0.9699997411040584,"21":0.5400003361643316,"3":0.9500001969038439,"4":0.3900001146076316,"5":0.06000008187254344,"6":0.21000016559048665,"7":-0.7999998341721472,"8":-0.9599997288624932,"9":-0.04999972960116691,"lenght":22},"5":{"0":-0.8599999144944069,"1":0.6200000411285901,"10":-0.8899998440310627,"11":0.8100001712289785,"12":-0.2399998559466172,"13":0.9300000664291364,"14":0.35000014491206066,"15":-0.5199999061777553,"16":0.1500001440571913,"17":0.47000014887827246,"18":-0.10999988826938299,"19":-0.4899998952816707,"2":-0.569999916496686,"20":-0.9699999308176686,"21":0.720000091706253,"3":-0.7699999450471345,"4":0.3800000201261077,"5":0.5700000085781951,"6":-0.9299999761396973,"7":0.3000000241257431,"8":-0.5999999493420942,"9":0.36000006337363194,"lenght":22},"6":{"0":0.5399998012019995,"1":-0.6600001001237319,"10":-0.560000283137157,"11":-0.8200002898565856,"12":-0.710000215610315,"13":0.8199999021479305,"14":0.06999976496458096,"15":-0.8400001618249217,"16":0.5699997653049896,"17":0.9599997514504256,"18":0.39999982414214774,"19":0.15999983864873726,"2":0.6899998356691596,"20":-0.40000012347754466,"21":0.1199998425124005,"3":0.23999988378348086,"4":0.18999994432198442,"5":0.6299999684426407,"6":-0.13000006367117417,"7":-0.35000006952779755,"8":-0.5300001120857103,"9":-0.45000011243668275,"lenght":22},"7":{"0":-0.48000006222227715,"1":-0.8500000486467241,"10":-0.4300000589203236,"11":0.8099999657875558,"12":-0.1300000240494753,"13":-0.08000006114572647,"14":0.05999998091231764,"15":0.24999995823319734,"16":-0.5000000166679784,"17":0.14999998673939696,"18":0.18999996401217614,"19":0.8399999781775285,"2":0.7999999685861537,"20":-0.8300000508354763,"21":-0.32000005935167647,"3":0.6499999775729051,"4":-0.8600000437337153,"5":0.7299999503567788,"6":-0.8500000872534474,"7":0.32999992049557325,"8":-0.8700000989840727,"9":-0.19000007466524385,"lenght":22},"8":{"0":-0.6500003327027697,"1":0.989999751521993,"10":-0.9400004577681863,"11":-0.17000039748825851,"12":-0.20000034403147818,"13":-0.6200003960805627,"14":-0.07000032523187684,"15":-0.9000003344074773,"16":-0.6600002987981194,"17":0.3699997071313058,"18":-0.8200003436116623,"19":0.18999972525954587,"2":0.019999773634174888,"20":0.20999966017720625,"21":0.7099996103053609,"3":-0.08000016009481264,"4":0.2199998081103064,"5":-0.12000020693839725,"6":-0.8400003964761978,"7":-0.7300003245708149,"8":-0.35000043004432047,"9":0.529999596080886,"lenght":22},"9":{"0":-0.9700000795503689,"1":0.27999992804498164,"10":-0.45000009333625307,"11":-0.20000006500802336,"12":0.5799999392197835,"13":0.6399998815847354,"14":-5.2059821464033775e-08,"15":-0.36000007937139983,"16":0.3499999586035442,"17":-0.2500000354608872,"18":0.4299999257921673,"19":-0.03000004918611647,"2":0.13999995910025478,"20":0.53999990979422,"21":-0.14000009699075003,"3":-0.7500000307671322,"4":0.9599999408825681,"5":-0.7300000715385252,"6":-0.16000013679181596,"7":0.30999989279389334,"8":0.4499998684998923,"9":0.17999988042839105,"lenght":22},"lenght":16},"2":{"0":{"0":-0.489925915566462,"1":-0.23986777781026636,"10":0.11007769038121665,"11":0.6900409811552459,"12":-0.8899658832424294,"13":-0.4999797732255847,"14":-0.9899896421063442,"15":0.390015138923843,"2":0.7702260543810281,"3":0.8902334315248545,"4":0.010230709179625598,"5":-0.32979733220838875,"6":-0.7898113805439299,"7":0.6201713152984344,"8":-0.29993150082383585,"9":0.540071525775515,"lenght":16},"1":{"0":-0.640021286011556,"1":0.36996350484637053,"10":-0.16002072027243783,"11":-0.4500118120151262,"12":0.4099900591643413,"13":-0.4800060453063811,"14":0.1899968306181272,"15":-0.21000455154007322,"2":0.33993875226041703,"3":0.42993730036766514,"4":0.2899376158093326,"5":0.6699459689165679,"6":0.7199494218520568,"7":-0.4000458270129129,"8":0.07998007762029534,"9":0.3699802470991684,"lenght":16},"10":{"0":-0.09999995067642767,"1":-0.46999990296803423,"10":-0.8199999360534449,"11":0.8000000353801838,"12":-0.0599999700022491,"13":0.5700000174115726,"14":0.21000000828167484,"15":-0.649999987527479,"2":-0.8899998412230203,"3":-0.9699998409512633,"4":-0.15999983494467654,"5":0.9300001486792979,"6":0.9300001439360597,"7":-0.1399998604580389,"8":0.060000058784917105,"9":-0.6299999406153328,"lenght":16},"11":{"0":0.12000001206528127,"1":0.40000002427026865,"10":0.2700000163750284,"11":0.7500000092151408,"12":-0.28999999214426714,"13":0.8300000045280843,"14":0.7300000021000702,"15":-0.4099999967985838,"2":0.9900000392274959,"3":0.7600000389742865,"4":0.1500000409544159,"5":-0.5699999629511169,"6":-0.5099999637941405,"7":-0.7899999642972713,"8":0.9800000152982795,"9":-0.3499999847024233,"lenght":16},"2":{"0":-0.10998656798065781,"1":-0.7999763495790883,"10":0.9900151903314982,"11":-0.509990436595024,"12":0.9800082200505449,"13":-0.029995031482182567,"14":0.9000024817006519,"15":-0.4499963622458591,"2":-0.20996457893557588,"3":-0.3599656475976579,"4":0.360036989943369,"5":0.5600326695313896,"6":-0.8599675327285639,"7":0.9800328208974758,"8":0.18001602601748679,"9":1.5100968203319399e-05,"lenght":16},"3":{"0":0.2500057613373984,"1":0.8900107164425133,"10":-0.8999930797889371,"11":0.1300040917859845,"12":0.6400034976934287,"13":-0.47999793630281135,"14":-0.569999005308897,"15":-0.1899985118504425,"2":0.44001686489231767,"3":0.310016660282236,"4":-0.2799824547693014,"5":0.7600156243712092,"6":0.7200152881351429,"7":0.28001509440443423,"8":0.13000683801584334,"9":-0.7799933435141657,"lenght":16},"4":{"0":-0.07999987225141243,"1":0.010000397834091755,"10":0.21000043510942873,"11":0.9200002969527415,"12":-0.3499997374240966,"13":0.4300001511139381,"14":0.14000006425687192,"15":0.4200001010699113,"2":-0.11999965824447928,"3":0.0900001799226494,"4":-0.6699995532441709,"5":0.5800004953036997,"6":0.4700006422791688,"7":0.9300008958751074,"8":0.6600004873753854,"9":0.2800004386440676,"lenght":16},"5":{"0":-0.9499997189127702,"1":-0.7199993606780292,"10":-0.43999948638163355,"11":-0.219999684177995,"12":0.9000002745853158,"13":-0.05999984253819018,"14":6.925175879011759e-08,"15":0.8100001078924672,"2":0.16000089100387313,"3":-0.0599991915599215,"4":0.1600009732227567,"5":-0.3399990770084395,"6":0.7900009792325167,"7":-0.7099989058073972,"8":-0.4799994790165887,"9":-0.08999950412602445,"lenght":16},"6":{"0":-0.049999663976293476,"1":0.03000072315806849,"10":0.5500005456426581,"11":-0.9699996734625453,"12":0.5400002825393855,"13":0.1400001616870016,"14":0.5100000716508204,"15":-0.7399998883810031,"2":0.41000106385902574,"3":0.3200010030325233,"4":-0.7299988598826628,"5":-0.5899989410703727,"6":-0.6099989096984904,"7":0.46000117024767584,"8":-0.07999946081556784,"9":-0.5599994783087928,"lenght":16},"7":{"0":-0.7699997398862212,"1":0.38000047659850206,"10":0.9300003072104243,"11":0.3500001822242316,"12":-0.519999844616737,"13":0.1500000929711314,"14":0.4700000462960268,"15":-0.10999993204906074,"2":0.5700007453426654,"3":-0.9299992645650381,"4":0.30000077589068236,"5":-0.5999993089215327,"6":0.3600006766528708,"7":-0.8899993333545718,"8":0.8100003044315519,"9":-0.23999970401662823,"lenght":16},"8":{"0":-0.00999993587017,"1":0.07000012110077355,"10":-0.3499999221964846,"11":-0.5299999559261669,"12":-0.4499999625876049,"13":-0.5599999779997835,"14":-0.8199999892957365,"15":-0.7099999840629769,"2":0.42000019625859225,"3":0.5400001964307659,"4":-0.6599997965170121,"5":0.6900001816753301,"6":0.24000017566030554,"7":0.19000016978932735,"8":0.6300000734681579,"9":-0.12999992674036112,"lenght":16},"9":{"0":-0.779999969189815,"1":0.24000006211979857,"10":-0.8499999583802067,"11":0.800000022989904,"12":0.6500000195474562,"13":-0.8599999887887674,"14":0.7300000051781752,"15":-0.8499999920774914,"2":-0.12999989831778597,"3":0.5000001016577857,"4":0.26000010589893197,"5":0.20000009569763186,"6":0.12000009299715082,"7":0.7900000908642271,"8":0.06000003815163225,"9":-0.47999996144687124,"lenght":16},"lenght":12},"3":{"0":{"0":-0.4869753651012574,"1":-0.23501985436807832,"10":0.11608356575008211,"11":0.696203341775494,"2":0.775189260123201,"3":0.8960207401533254,"4":0.016211291517954553,"5":-0.3238730832506979,"6":-0.7840172866583874,"7":0.6258582174609505,"8":-0.2939196852541139,"9":0.5462058297828983,"lenght":12},"1":{"0":0.2929666883196562,"1":-0.34523700161681853,"10":0.7255578439944901,"11":-0.39430337349903305,"2":-0.18514519822009545,"3":0.0055586496721388955,"4":-0.6343051857097473,"5":0.3756220094877614,"6":0.3454988116977929,"7":0.43536054303489075,"8":0.29558452509087807,"9":0.6756970503724729,"lenght":12},"2":{"0":-0.4643524092573395,"1":0.03278073269929439,"10":-0.21892329296779134,"11":-0.369042152873936,"2":-0.39759148195111876,"3":-0.9787745789233404,"4":0.7909416474004444,"5":-0.1389473588909007,"6":-0.4887520072320568,"7":0.8214009010532114,"8":-0.11888500088764964,"9":-0.8090507079146905,"lenght":12},"3":{"0":0.9396139833222155,"1":0.8993508418147336,"10":-0.8608196544658827,"11":0.00917677146727746,"2":0.28930775858556146,"3":0.3192019736030274,"4":0.5391750615066644,"5":-0.5808164275980026,"6":-0.500800323767111,"7":0.30920996009657403,"8":-0.16081155543334313,"9":0.9891753026329012,"lenght":12},"4":{"0":-0.5600224028820454,"1":0.9399624659899657,"10":-0.6100470527794452,"11":0.05995288069302045,"2":-0.20003991969027324,"3":0.37995426519832654,"4":0.20995282180243316,"5":0.579953235240352,"6":0.5999540782837539,"7":-0.26004536567488196,"8":0.859953467836058,"9":0.6299527827344747,"lenght":12},"5":{"0":-0.47995802300239965,"1":-0.5699352575512128,"10":-0.35993014109434757,"11":0.860072806249044,"2":-0.18993663289297819,"3":0.5700716018945142,"4":-0.289927406031002,"5":0.8000715927381824,"6":-0.9099299937124344,"7":-0.33993251417366915,"8":0.19007112981116725,"9":-0.7999272833869284,"lenght":12},"6":{"0":0.28000198793558345,"1":0.21000315570307013,"10":0.5800036115895356,"11":0.3500037420257109,"2":0.9200031756697407,"3":-0.34999634575443994,"4":0.43000374114692513,"5":0.14000368327861415,"6":0.42000359228517453,"7":-0.5999965171043925,"8":0.5500036535525025,"9":0.8700037387827166,"lenght":12},"7":{"0":-0.3399985602441181,"1":0.7900022403657853,"10":0.8100024702129366,"11":-0.8699974007906618,"2":-0.7099977943098801,"3":-0.47999745525767473,"4":-0.08999740242819791,"5":-0.4399974508145908,"6":-0.21999752158308564,"7":0.9000023827937581,"8":-0.05999747515457707,"9":2.5936818852096424e-06,"lenght":12},"lenght":8},"4":{"0":{"0":-0.7587470665664261,"1":-0.5837760325911169,"2":0.5460336653950357,"3":0.5607385185578226,"4":-0.3649001170659899,"5":-0.6974791256669965,"6":-1.1682995455944758,"7":0.242005975345864,"lenght":8},"1":{"0":-0.12817537420956507,"1":-0.7166863835296724,"2":-1.074867532758498,"3":-0.18911148038828318,"4":0.09739499616119084,"5":-0.5387754604625551,"6":-0.38436227041914106,"7":-0.19420286385177862,"lenght":8},"2":{"0":0.009575365014830951,"1":1.0029789864107164,"2":-0.06732089887323031,"3":0.19340054141172972,"4":0.5312979215886533,"5":1.1983042016854546,"6":0.6571529905277294,"7":1.3666090394319104,"lenght":8},"3":{"0":0.94798895971478,"1":0.5783981901344658,"2":0.029477007874641623,"3":1.1161926362145889,"4":0.3243702598980995,"5":0.9783371272978776,"6":0.6017029410871494,"7":-0.12896126837670596,"lenght":8},"4":{"0":-0.5661178147550188,"1":0.08900075377618305,"2":-0.16563256831384215,"3":0.6461403986108262,"4":0.8858953800289977,"5":-0.5405859838076968,"6":1.3088665533225974,"7":0.5085974069830063,"lenght":8},"lenght":5},"5":{"0":{"0":0.1356150901340955,"1":-0.15640218072068068,"2":1.0694579621768552,"3":2.93063566660038,"4":4.294115298071372,"lenght":5},"1":{"0":0.2786610932273938,"1":0.3485797932000409,"2":0.5265758667001174,"3":0.2731623200863965,"4":0.17116763670916982,"lenght":5},"2":{"0":0.14978475238114364,"1":-1.1236568681181747,"2":-0.9193796897089337,"3":-1.2012664363233694,"4":0.6311227095785072,"lenght":5},"3":{"0":-0.49046396744534365,"1":0.3906185863364055,"2":0.4025657647991594,"3":0.5107232825174535,"4":0.5887880677351361,"lenght":5},"lenght":4},"lenght":6}}