{"biases":{"0":{"0":-0.317814991,"1":0.10261031199999993,"2":-0.6144193112,"3":-0.5230843566000001,"4":0.5376071862,"5":0.19198525419999996,"lenght":6},"1":{"0":-0.14631984399999998,"1":-0.13295302860000002,"2":-0.6497039418,"3":0.38350072760000004,"lenght":4},"2":{"0":-0.2832004124,"1":0.4565111072,"2":0.337630776,"3":-0.8555202564,"4":0.2150678898,"5":0.029926834199999974,"6":0.3554902829999999,"7":-0.6041981522,"lenght":8},"lenght":3},"weights":{"0":{"0":{"0":-0.3290491918,"1":0.15495729899999994,"2":-0.4360726925999999,"3":0.029216146799999974,"4":-0.3163293536,"5":0.46651587460000005,"lenght":6},"1":{"0":-0.28717972059999997,"1":-0.4008044388000001,"2":0.1349598266,"3":0.4849020434,"4":-0.5653216664,"5":0.4731661470000001,"lenght":6},"2":{"0":0.22837021519999992,"1":-0.1348823478,"2":0.20391462540000005,"3":0.03813828040000003,"4":0.4114749848,"5":-0.4672382260000001,"lenght":6},"3":{"0":-0.3355437786,"1":-0.6782381658,"2":0.5778205716,"3":-0.8638228246,"4":-0.3789469218,"5":0.5406928137999999,"lenght":6},"4":{"0":-0.9586803992,"1":0.10274789839999993,"2":-0.06269687420000003,"3":-0.39558989860000005,"4":0.5516635418,"5":-0.03708968800000001,"lenght":6},"5":{"0":-0.2840948332,"1":0.5506143500000001,"2":-0.8821323884000001,"3":-0.32016752579999996,"4":0.21934030859999992,"5":-0.27295193079999996,"lenght":6},"6":{"0":0.4743483488,"1":-0.46783941199999995,"2":-0.9457563696,"3":0.12081798660000002,"4":0.25657244259999995,"5":-0.5995682242,"lenght":6},"7":{"0":0.32198413420000005,"1":-0.6035475309999999,"2":0.27954942799999993,"3":0.05140857079999994,"4":-0.2234092506,"5":0.33053422400000004,"lenght":6},"lenght":8},"1":{"0":{"0":0.012733958000000045,"1":-0.2526508636,"2":-0.06629664739999996,"3":-0.5059464411999999,"lenght":4},"1":{"0":-0.4799029652,"1":-0.7949935216,"2":-0.4220265286,"3":-0.3727296122,"lenght":4},"2":{"0":0.09342660219999999,"1":0.5878786381999999,"2":-0.012115261599999982,"3":0.5568040249999999,"lenght":4},"3":{"0":0.6097111124000001,"1":-0.346774953,"2":-0.21214790579999993,"3":0.415569273,"lenght":4},"4":{"0":-0.778614365,"1":-0.26239446359999996,"2":-0.18561274040000003,"3":-0.5345321112,"lenght":4},"5":{"0":0.15203731219999994,"1":0.10988120500000007,"2":-0.012079642200000046,"3":0.3510965514,"lenght":4},"lenght":6},"2":{"0":{"0":-0.8492142176,"1":-0.20880636439999997,"2":0.5993652183999999,"3":0.21688281719999997,"4":0.3882001146,"5":0.8553386898,"6":-0.3458467944,"7":0.3311365280000001,"lenght":8},"1":{"0":-0.8027826714,"1":-0.7044522448,"2":0.16794055300000005,"3":0.7044382522,"4":0.5387728022,"5":-0.7706975415999999,"6":-0.23199247480000001,"7":0.3916682484,"lenght":8},"2":{"0":0.6529079948000001,"1":0.3699045966000001,"2":0.04513613719999998,"3":0.798945307,"4":0.3572956127999999,"5":0.07856630619999996,"6":-0.25595814100000003,"7":0.5980952004000001,"lenght":8},"3":{"0":0.03907741339999994,"1":-0.18281755380000003,"2":-0.2419152442,"3":0.17614530379999999,"4":0.13510928039999998,"5":0.7915750388,"6":-0.5645430372,"7":-0.3861049372,"lenght":8},"lenght":4},"lenght":3}}