{"biases":{"0":{"0":0.5340263477162315,"1":-0.5937759021880287,"10":0.3509866245570057,"11":0.3711618917108553,"2":0.019744350169414754,"3":-0.5546378231198029,"4":0.39507838386806315,"5":-0.46815577518053425,"6":0.5201747340243538,"7":0.34943768419660454,"8":-0.09102316013127862,"9":0.43193216609839635,"lenght":12},"1":{"0":-0.18447720002926044,"1":-0.6614093688190659,"10":-0.06605114043132573,"11":-0.04679756568613533,"2":-0.011926926990761451,"3":0.7014381193944941,"4":-0.3201790663917695,"5":-0.6430258293738979,"6":-0.44846432947442366,"7":0.06366568935637092,"8":0.5261932514878243,"9":-0.44185475559365617,"lenght":12},"2":{"0":0.5334520729024355,"1":-0.6516727045460512,"2":-0.3223673011746439,"3":-0.17631198308376753,"4":-0.5116110991257645,"5":-0.3248983969800949,"lenght":6},"3":{"0":-0.5208426965335468,"1":-0.37145977648292405,"2":-0.749006483020664,"3":0.3663442049023181,"lenght":4},"lenght":4},"weights":{"0":{"0":{"0":0.407702755268856,"1":0.07704186312087884,"2":-0.28142346728403833,"3":-0.3238007764510085,"4":-0.13415889419090452,"5":0.05566716593502284,"6":-0.19374806170762712,"7":0.036903673717035713,"lenght":8},"1":{"0":0.10676217131910085,"1":0.3285669474218051,"2":-0.5787431429556087,"3":0.16007336334619565,"4":0.12630243950706932,"5":0.4785749912449103,"6":-0.31141951991795824,"7":0.2222265781607799,"lenght":8},"10":{"0":0.16130147860120644,"1":-0.17079224281945282,"2":0.29918002396677945,"3":0.09713010508157029,"4":0.6096034010610614,"5":-0.13532099555906651,"6":0.6700758368085274,"7":-0.5708607596812562,"lenght":8},"11":{"0":0.3901344459407288,"1":0.11293975944080155,"2":-0.06878748856292517,"3":-0.7130672836381224,"4":-0.35172862567081736,"5":-0.22781259024675607,"6":-0.34642547176732824,"7":-0.17173430334504586,"lenght":8},"2":{"0":0.11871262709765795,"1":-0.3779355515221554,"2":-0.44474119527065953,"3":0.057502585306676054,"4":-0.6239799347812276,"5":-0.09757324508428424,"6":-0.13005605610711132,"7":-0.7066503589216849,"lenght":8},"3":{"0":0.02965324708536652,"1":-0.4775769153720592,"2":0.227005310597894,"3":0.11439421486905733,"4":-0.37385182504632103,"5":-0.3385953732826433,"6":0.029802127994607765,"7":0.2632449752362785,"lenght":8},"4":{"0":-0.5944419626960982,"1":-0.04935160961792779,"2":-0.011080732342973184,"3":0.09853855167214082,"4":0.3155986525552829,"5":-0.42309760262817386,"6":-0.466042957404636,"7":0.34380811306857073,"lenght":8},"5":{"0":0.42333959120050557,"1":-0.10940071702804936,"2":-0.22679145363628259,"3":0.01804277853481322,"4":-0.009286012745638431,"5":-0.4718362455372789,"6":-0.18081817013654536,"7":0.6007042593577637,"lenght":8},"6":{"0":-0.4181678871134947,"1":-0.2625780037177319,"2":-0.21334934455738175,"3":-0.16555813619725004,"4":0.23946764623417638,"5":-0.5036686282113435,"6":-0.16187674608543265,"7":-0.19896418198298543,"lenght":8},"7":{"0":0.06333027022271207,"1":0.5570608506535191,"2":-0.33990246740791513,"3":-0.06619391891985785,"4":0.039802847008873904,"5":0.5198462283823679,"6":-0.29867477066235215,"7":0.009020292350964649,"lenght":8},"8":{"0":-0.4318997998926581,"1":0.4678759130995549,"2":0.3237371134345156,"3":-0.7609468518356285,"4":-0.02384941628711475,"5":-0.633711841287939,"6":0.35231034153041463,"7":0.06008709502113985,"lenght":8},"9":{"0":-0.024672283890759397,"1":0.4693927796367607,"2":-0.70639444782898,"3":0.04416217044578553,"4":0.43808347715141366,"5":-0.1867753530425505,"6":0.41114271903164823,"7":0.33983190197628044,"lenght":8},"lenght":12},"1":{"0":{"0":-0.006202150142197875,"1":0.2827412454205992,"10":0.5750645582184719,"11":0.388298292566293,"2":-0.595178398701834,"3":0.5738439628971967,"4":0.30622439528072876,"5":0.5301330845367004,"6":-0.20651013453478395,"7":0.15385805239372027,"8":0.22645909060033856,"9":-0.3363548068537458,"lenght":12},"1":{"0":0.10618519391003156,"1":0.021217029145018572,"10":0.1693342601025952,"11":-0.18702484615175502,"2":0.10465179037548811,"3":0.10596869842652384,"4":-0.0446846800645018,"5":-0.8174380340353704,"6":0.4937318739017542,"7":0.12166932662363919,"8":-0.8558449260809415,"9":-0.5248933171277816,"lenght":12},"10":{"0":0.046668429740398774,"1":0.4113558424912401,"10":-0.6996690359925913,"11":0.2895774939968702,"2":0.2507973779548424,"3":0.37895491653407815,"4":-0.24665163140548538,"5":-0.5533230099669851,"6":0.10740022802522092,"7":0.2948113125973972,"8":0.20836717869360796,"9":-0.5422120531751604,"lenght":12},"11":{"0":-0.14917897935174934,"1":-0.22244960437785027,"10":0.30739210722521476,"11":0.1988467717820846,"2":-0.14471519352356382,"3":0.281928458345635,"4":0.44218352594449667,"5":-0.029895322114747103,"6":-0.6629200634766796,"7":-0.026144095062450936,"8":0.36253765285714434,"9":-0.05847035659900746,"lenght":12},"2":{"0":-0.35449776414209083,"1":0.08127488422817192,"10":-0.20291728807130022,"11":0.42747762412269064,"2":0.8664301067026234,"3":-0.5209514982607999,"4":0.22902298274862531,"5":-0.3433137698146878,"6":0.25105744256734763,"7":-0.5757579343520716,"8":0.6206927010169813,"9":-0.3233233493248135,"lenght":12},"3":{"0":-0.3874794833560131,"1":-0.41422632710861024,"10":-0.0459209047252267,"11":-0.343470127050834,"2":-0.32355361785931547,"3":-0.5593259425141739,"4":0.02523643180950732,"5":-0.21944855775137165,"6":0.5340798704529252,"7":-0.3466005044654981,"8":-0.022877695270842466,"9":0.30157737272519847,"lenght":12},"4":{"0":0.10708103726332265,"1":0.17919157207760178,"10":0.3907810504867823,"11":-0.12448785653954926,"2":0.3667047269532649,"3":0.23348887787638864,"4":-0.07399178454443972,"5":-0.6783087400816775,"6":0.09519096777082281,"7":0.19206664861790662,"8":0.5394629584743246,"9":0.25763463801771275,"lenght":12},"5":{"0":-0.09447990073451046,"1":-0.6439211041514151,"10":0.3925559957129248,"11":0.008843769107062204,"2":0.2099330309098471,"3":0.02983435207822379,"4":-0.06856995086508812,"5":0.17505386087978245,"6":-0.5464176074489022,"7":0.25102889271212964,"8":-0.7773757268859249,"9":-0.4114139741984692,"lenght":12},"6":{"0":0.24062375468635008,"1":-0.05214774912013702,"10":-0.16783896422484665,"11":-0.32516260190070745,"2":0.08981858575123224,"3":-0.7499717154999802,"4":0.34275730246454306,"5":-0.6052573642230917,"6":-0.5706188560105135,"7":-0.4587860226471534,"8":0.4953999269270221,"9":0.3623652277889402,"lenght":12},"7":{"0":-0.41814480798333803,"1":-0.3305565126377506,"10":0.44047064527815016,"11":0.5171519666415482,"2":0.16729587544687527,"3":0.34332943370300906,"4":0.5275173469136271,"5":-0.09527729987988796,"6":-0.1630366190953112,"7":0.02387319957723035,"8":0.11495512607966447,"9":-0.012420495189707444,"lenght":12},"8":{"0":-0.20989504951981705,"1":0.2939509338605926,"10":-0.09026816422041255,"11":-0.44776803715328733,"2":-0.08454544822961632,"3":-0.21095375841026215,"4":0.28061555182864356,"5":-0.47808657439501706,"6":-0.3146656928144943,"7":-0.0238634600706234,"8":0.12412255174579546,"9":0.22672065156744253,"lenght":12},"9":{"0":0.42545610701686293,"1":-0.4671531468016967,"10":0.17722554242003116,"11":-0.3709623576660452,"2":-0.08109859343329713,"3":-0.24460626486792414,"4":-0.3938750421678472,"5":-0.3793300903277847,"6":-0.16424780700876712,"7":0.5215203925456037,"8":-0.10806733076082653,"9":-0.6720212010602253,"lenght":12},"lenght":12},"2":{"0":{"0":-0.2152745410148367,"1":0.04933979867309845,"10":0.5615640858060484,"11":0.07931233392409082,"2":-0.10410819630639849,"3":-0.659737610693476,"4":-0.10558997246062875,"5":-0.5286931210273736,"6":-0.44993433760199836,"7":0.1926856445872961,"8":0.07582044609969997,"9":-0.537985763833772,"lenght":12},"1":{"0":0.5391616040072972,"1":-0.2681394894357588,"10":-0.25383409952873065,"11":0.5076454728430496,"2":0.7189462418653049,"3":-0.6057151072950392,"4":0.5062392466026645,"5":-0.06451279760340398,"6":-0.28362343461830614,"7":0.5524603937276499,"8":-0.2490067890156688,"9":0.3824170962591138,"lenght":12},"2":{"0":-0.029259615988622388,"1":-0.09946990925010601,"10":-0.09972152724701033,"11":0.2123418104589403,"2":0.2045675442539514,"3":-0.686957859266481,"4":-0.4549242022201246,"5":-0.7949917403743412,"6":0.16186340497612955,"7":0.31966914586704637,"8":-0.04286805040826033,"9":-0.2184791153059955,"lenght":12},"3":{"0":0.07457244013849007,"1":0.3382083562603919,"10":-0.16159134323467145,"11":-0.582457961889985,"2":-0.18710924599749698,"3":-0.714677882157104,"4":0.19589926462808863,"5":0.07621080783778487,"6":0.09633443616769774,"7":0.09438556266888765,"8":-0.06849543128710311,"9":0.21343082592578916,"lenght":12},"4":{"0":-0.6116571679549161,"1":0.014345493018778436,"10":-0.6282754093899352,"11":-0.34432064160107845,"2":0.29839848425803356,"3":-0.7897422242637864,"4":0.1562138726979913,"5":-0.3263005948399955,"6":0.4751641604640503,"7":-0.12613493426635797,"8":0.22694535899441204,"9":0.3821196500248687,"lenght":12},"5":{"0":0.4067275013435101,"1":-0.8369604298523184,"10":0.2920863506184038,"11":-0.00011495954050994364,"2":0.03435601558894288,"3":-0.6290106492389137,"4":-0.18307215480925737,"5":-0.27132655594866856,"6":-0.11111734936769774,"7":0.6903269593552324,"8":0.4577283947938996,"9":-0.5190659351817166,"lenght":12},"lenght":6},"3":{"0":{"0":0.28994663658549374,"1":-0.1196965142221002,"2":-0.08602411339419719,"3":0.44595813559449365,"4":-0.41205397574486086,"5":-0.4587325736989289,"lenght":6},"1":{"0":0.29019003343672156,"1":0.53907465111835,"2":0.11204325471230295,"3":-0.04310869605431855,"4":0.21781570988436896,"5":-0.4172566186529101,"lenght":6},"2":{"0":-0.31593486624699557,"1":0.2093242272513874,"2":-0.11772846930972161,"3":0.26943118634044005,"4":0.23653749183872502,"5":0.07263936704636688,"lenght":6},"3":{"0":0.3003275891519889,"1":-0.3285230538522515,"2":0.7255313968376903,"3":-0.1679686763016962,"4":-0.4999995221910059,"5":0.13379286484386482,"lenght":6},"lenght":4},"lenght":4}}