{"biases":{"0":{"0":0.56,"1":-0.07999999999999996,"2":-0.88,"3":0.30000000000000004,"4":0.5,"5":-0.56,"lenght":6},"1":{"0":-0.4,"1":0.3799999999999999,"2":0.8999999999999999,"3":-0.33999999999999997,"4":-0.74,"5":-0.84,"6":0.72,"7":0.1200000000000001,"lenght":8},"2":{"0":-0.14,"1":0.32000000000000006,"2":0.3600000000000001,"3":-0.94,"lenght":4},"lenght":3},"weights":{"0":{"0":{"0":0.8799999999999999,"1":-0.16000000000000003,"2":-0.38,"3":-0.74,"4":0.78,"5":-0.56,"lenght":6},"1":{"0":-0.86,"1":-0.6599999999999999,"2":-0.43999999999999995,"3":-0.48,"4":0.3400000000000001,"5":-0.74,"lenght":6},"2":{"0":0.8400000000000001,"1":-0.8,"2":0.21999999999999997,"3":0.6599999999999999,"4":-0.19999999999999996,"5":-0.43999999999999995,"lenght":6},"3":{"0":0.96,"1":-0.96,"2":-0.36,"3":-0.6799999999999999,"4":0.94,"5":-0.07999999999999996,"lenght":6},"lenght":4},"1":{"0":{"0":0.3400000000000001,"1":0.3799999999999999,"2":-0.6599999999999999,"3":0.0,"4":0.6599999999999999,"5":0.15999999999999992,"6":-0.5,"7":-0.16000000000000003,"lenght":8},"1":{"0":-0.45999999999999996,"1":-0.9,"2":0.3600000000000001,"3":0.8799999999999999,"4":-0.64,"5":0.19999999999999996,"6":0.1399999999999999,"7":-0.38,"lenght":8},"2":{"0":0.8999999999999999,"1":-0.020000000000000018,"2":0.17999999999999994,"3":-0.09999999999999998,"4":0.020000000000000018,"5":-0.12,"6":0.21999999999999997,"7":-0.98,"lenght":8},"3":{"0":0.8,"1":0.8200000000000001,"2":-0.06000000000000005,"3":-0.040000000000000036,"4":0.1399999999999999,"5":0.48,"6":-0.54,"7":0.52,"lenght":8},"4":{"0":-0.14,"1":-0.19999999999999996,"2":0.5800000000000001,"3":0.56,"4":0.0,"5":-0.92,"6":-0.5800000000000001,"7":0.54,"lenght":8},"5":{"0":-0.8200000000000001,"1":-0.18000000000000005,"2":-0.52,"3":0.5800000000000001,"4":-0.96,"5":0.6200000000000001,"6":-0.8,"7":-0.020000000000000018,"lenght":8},"lenght":6},"2":{"0":{"0":-1.0,"1":0.7,"2":-0.92,"3":-0.8200000000000001,"lenght":4},"1":{"0":0.17999999999999994,"1":-0.45999999999999996,"2":0.7,"3":-0.94,"lenght":4},"2":{"0":-0.62,"1":0.28,"2":-0.33999999999999997,"3":0.3799999999999999,"lenght":4},"3":{"0":0.3600000000000001,"1":-0.88,"2":-0.06000000000000005,"3":-0.42000000000000004,"lenght":4},"4":{"0":-0.040000000000000036,"1":-0.54,"2":-0.84,"3":-0.96,"lenght":4},"5":{"0":-0.92,"1":-0.64,"2":0.020000000000000018,"3":0.72,"lenght":4},"6":{"0":0.76,"1":0.96,"2":0.41999999999999993,"3":0.06000000000000005,"lenght":4},"7":{"0":-0.86,"1":0.15999999999999992,"2":-0.8200000000000001,"3":0.17999999999999994,"lenght":4},"lenght":8},"lenght":3}}