{"biases":{"0":{"0":0.3780043810535888,"1":0.5844530456934637,"2":0.7,"3":0.6229534385891615,"4":0.5946760316486511,"5":0.22424377468810472,"lenght":6},"1":{"0":1.0615570253977287,"1":1.8690011081402622,"2":1.6767850268480775,"3":2.496697781397076,"4":1.9927504656013584,"5":3.4136542165632155,"lenght":6},"2":{"0":0.6339274415451139,"1":0.6656231999652965,"2":1.8143863283378965,"3":0.3278742546317205,"4":1.650064421921143,"5":0.9849262316652853,"lenght":6},"3":{"0":-6.591949208711867e-16,"1":-0.006890192174202448,"2":-0.5540971289103541,"3":-0.18300004237799675,"lenght":4},"lenght":4},"weights":{"0":{"0":{"0":0.04374665830178903,"1":0.7074553035484,"10":0.3210392437022059,"11":-0.6596152575852597,"12":-0.36618690705005,"13":-0.06345480192902211,"14":0.2195191162699709,"15":-0.382423980149082,"2":0.601905041183044,"3":-0.1096716937547202,"4":-1.0849271687835433,"5":0.1890847305578454,"6":-0.42550900486348037,"7":0.9231740081583221,"8":-0.25003969045746866,"9":-0.042828963496053196,"lenght":16},"1":{"0":-0.16196841896581518,"1":0.022830808418761644,"10":-0.6420362255692366,"11":-0.30184298543301014,"12":-0.5018827571474446,"13":-0.6225237016293335,"14":-0.901710751829175,"15":-0.6365534325760022,"2":0.6121472150577918,"3":0.18824212133244406,"4":-0.8944395037339222,"5":-0.7483693075096004,"6":0.0030155823519050556,"7":-1.9893003967280274e-05,"8":-0.6848562829295186,"9":0.46915383149645506,"lenght":16},"2":{"0":-0.21,"1":-0.27,"10":0.36,"11":-0.62,"12":-0.54,"13":-0.28,"14":-0.07,"15":-0.64,"2":-0.18,"3":-0.55,"4":-0.35,"5":-0.79,"6":-0.43,"7":0.07,"8":0.33,"9":-0.17,"lenght":16},"3":{"0":0.8637561229748661,"1":0.40257283774166036,"10":0.910114726212707,"11":-0.7866418571137712,"12":0.056403715201876974,"13":0.014868808093692008,"14":-0.4400213126783493,"15":-0.7655847584104024,"2":0.549343761885937,"3":-0.9581836479670987,"4":0.4869625027887275,"5":-0.9709233044902098,"6":-0.42359406639046704,"7":0.11895400240250276,"8":-0.7906810861593065,"9":0.840918832055147,"lenght":16},"4":{"0":-0.19031804458017312,"1":0.4379442933422256,"10":-0.8334332638235438,"11":0.865971567555447,"12":0.6822487164182237,"13":-0.5319438639052333,"14":0.6455954378192206,"15":-0.9980233234521889,"2":-0.3819119172676295,"3":-0.9967296537963252,"4":0.4269326576406952,"5":0.0037552976621394504,"6":-0.9585891427132838,"7":0.7912487259767277,"8":-0.5060047401750264,"9":-0.32279677309017285,"lenght":16},"5":{"0":-0.5474306762676815,"1":0.4550397173275852,"10":0.39022499286112233,"11":0.09294323054207765,"12":0.4006731848152722,"13":-1.0120367953193872,"14":0.4427324961421876,"15":0.7528475398280009,"2":-0.4445411859742572,"3":-0.7857654482919663,"4":0.5408325127262253,"5":-0.6056422614739356,"6":0.7239413413197915,"7":-1.0291872221962222,"8":0.3641759865707811,"9":-0.4007962812853908,"lenght":16},"lenght":6},"1":{"0":{"0":0.10090046033424961,"1":0.8,"2":0.77,"3":0.09,"4":-0.9,"5":0.34,"lenght":6},"1":{"0":-0.4923133761426108,"1":-0.32,"2":-0.91,"3":0.58,"4":-0.88,"5":0.79,"lenght":6},"2":{"0":0.07774316863502567,"1":0.3,"2":-0.34,"3":0.78,"4":-0.07,"5":0.36,"lenght":6},"3":{"0":0.2610558076515063,"1":-0.84,"2":-0.7,"3":0.04,"4":0.02,"5":-0.66,"lenght":6},"4":{"0":0.5278877364752427,"1":0.33,"2":-0.27,"3":0.03,"4":-0.31,"5":0.99,"lenght":6},"5":{"0":-0.5821922115709657,"1":-0.39,"2":0.71,"3":-0.13,"4":-0.75,"5":-0.41,"lenght":6},"lenght":6},"2":{"0":{"0":0.1,"1":0.8,"2":0.77,"3":0.09,"4":-0.9,"5":0.34,"lenght":6},"1":{"0":-0.49,"1":-0.32,"2":-0.91,"3":0.58,"4":-0.88,"5":0.79,"lenght":6},"2":{"0":0.09,"1":0.3,"2":-0.34,"3":0.78,"4":-0.07,"5":0.36,"lenght":6},"3":{"0":0.26,"1":-0.84,"2":-0.7,"3":0.04,"4":0.02,"5":-0.66,"lenght":6},"4":{"0":0.54,"1":0.33,"2":-0.27,"3":0.03,"4":-0.31,"5":0.99,"lenght":6},"5":{"0":-0.58,"1":-0.39,"2":0.71,"3":-0.13,"4":-0.75,"5":-0.41,"lenght":6},"lenght":6},"3":{"0":{"0":0.1,"1":0.8,"2":0.77,"3":0.09,"4":-0.9,"5":0.34,"lenght":6},"1":{"0":-0.49,"1":-0.32,"2":-0.91,"3":0.58,"4":-0.88,"5":0.79,"lenght":6},"2":{"0":0.09,"1":0.3,"2":-0.34,"3":0.78,"4":-0.07,"5":0.36,"lenght":6},"3":{"0":0.26,"1":-0.84,"2":-0.7,"3":0.04,"4":0.02,"5":-0.66,"lenght":6},"lenght":4},"lenght":4}}