{"biases":{"0":{"0":0.260827386,"1":0.383545803,"10":-0.8,"11":-0.42000000000000004,"12":-0.07999999999999996,"13":0.17999999999999994,"14":0.24,"15":0.5,"16":0.1399999999999999,"17":-0.26,"18":0.26,"19":0.8400000000000001,"2":0.33763441839999997,"20":0.24,"21":-0.78,"22":0.30000000000000004,"23":-0.5,"24":-0.86,"25":-0.96,"26":0.6799999999999999,"27":0.8400000000000001,"28":-0.62,"29":-0.54,"3":0.30203178740000003,"30":0.43999999999999995,"31":0.6599999999999999,"4":-0.2032262196,"5":0.16380093560000003,"6":0.96,"7":-1.0,"8":0.74,"9":-0.18000000000000005,"lenght":32},"1":{"0":-0.4390975648,"1":-0.26616762060000004,"10":-0.64,"11":-0.56,"12":-0.31999999999999995,"13":-0.18000000000000005,"2":0.4501678616,"3":0.06383041219999999,"4":0.8638037218,"5":0.27513726559999996,"6":0.08000000000000007,"7":-0.54,"8":0.98,"9":-0.6599999999999999,"lenght":14},"2":{"0":-0.8898692298,"1":0.09711303119999995,"2":-0.3756200384,"3":0.37818797979999996,"4":-0.3805432898,"5":-0.4012123778000001,"6":0.72,"7":0.52,"lenght":8},"3":{"0":-0.5160205475999999,"1":-0.4728053562,"2":0.09245852119999998,"3":0.3483874198,"lenght":4},"4":{"0":-0.2934060748,"1":-0.21190936159999996,"10":0.3600000000000001,"11":-0.4,"12":0.98,"13":-0.040000000000000036,"14":0.48,"15":0.26,"2":-0.8793684316,"3":0.44457337759999993,"4":-0.8492049066,"5":0.6985999008000001,"6":0.4069607973999999,"7":0.7866223276,"8":0.10000000000000009,"9":-0.19999999999999996,"lenght":16},"lenght":5},"weights":{"0":{"0":{"0":-0.4191026804,"1":-0.3290071588,"10":0.8999999999999999,"11":0.9199999999999999,"12":-0.31999999999999995,"13":-0.98,"14":-0.5800000000000001,"15":-0.84,"16":0.48,"17":-0.6799999999999999,"18":0.1399999999999999,"19":-0.19999999999999996,"2":0.12706458840000007,"20":-0.7,"21":-0.72,"22":0.45999999999999996,"23":-1.0,"24":0.10000000000000009,"25":0.56,"26":0.24,"27":-0.07999999999999996,"28":-0.28,"29":-0.56,"3":0.20571124900000004,"30":0.5800000000000001,"31":0.5800000000000001,"4":0.1135440932,"5":0.5434913510000001,"6":0.41999999999999993,"7":-0.98,"8":-0.33999999999999997,"9":-0.09999999999999998,"lenght":32},"1":{"0":-0.1358548014,"1":-0.7782296754,"10":-0.16000000000000003,"11":-0.78,"12":0.5800000000000001,"13":0.26,"14":0.41999999999999993,"15":-0.9,"16":-0.38,"17":-0.43999999999999995,"18":0.96,"19":-0.07999999999999996,"2":-0.1792463817999999,"20":0.8799999999999999,"21":0.41999999999999993,"22":0.98,"23":-0.020000000000000018,"24":-0.98,"25":0.21999999999999997,"26":-0.040000000000000036,"27":0.78,"28":0.6599999999999999,"29":-0.45999999999999996,"3":-0.03665449220000003,"30":0.3799999999999999,"31":0.72,"4":-0.30890060140000003,"5":-0.440705797,"6":-0.38,"7":0.8799999999999999,"8":0.52,"9":-0.48,"lenght":32},"10":{"0":0.10000000000000009,"1":0.10000000000000009,"10":0.72,"11":0.96,"12":-0.86,"13":0.48,"14":-0.76,"15":0.9199999999999999,"16":0.6399999999999999,"17":0.5,"18":-0.38,"19":-0.06000000000000005,"2":0.6000000000000001,"20":-0.4,"21":0.28,"22":0.43999999999999995,"23":-0.28,"24":-1.0,"25":0.24,"26":0.54,"27":0.5,"28":-0.98,"29":-0.06000000000000005,"3":0.020000000000000018,"30":0.30000000000000004,"31":0.1200000000000001,"4":-0.31999999999999995,"5":-0.020000000000000018,"6":-0.43999999999999995,"7":-1.0,"8":-0.21999999999999997,"9":0.6200000000000001,"lenght":32},"11":{"0":-0.94,"1":0.94,"10":0.76,"11":-0.43999999999999995,"12":0.0,"13":0.040000000000000036,"14":-0.52,"15":0.6799999999999999,"16":-0.45999999999999996,"17":-0.86,"18":-0.38,"19":-0.8200000000000001,"2":0.19999999999999996,"20":0.43999999999999995,"21":0.1200000000000001,"22":0.96,"23":-0.52,"24":-0.64,"25":0.5,"26":0.020000000000000018,"27":0.41999999999999993,"28":-0.54,"29":-0.6799999999999999,"3":0.78,"30":0.6000000000000001,"31":0.56,"4":-0.07999999999999996,"5":0.76,"6":0.8,"7":-0.26,"8":-0.5800000000000001,"9":0.52,"lenght":32},"12":{"0":0.32000000000000006,"1":-0.19999999999999996,"10":0.6399999999999999,"11":0.76,"12":0.8799999999999999,"13":0.17999999999999994,"14":0.45999999999999996,"15":-0.56,"16":0.32000000000000006,"17":0.1200000000000001,"18":0.6599999999999999,"19":0.8,"2":0.3400000000000001,"20":-0.76,"21":0.6200000000000001,"22":-0.7,"23":0.6599999999999999,"24":-0.8200000000000001,"25":0.32000000000000006,"26":0.08000000000000007,"27":-0.36,"28":-0.30000000000000004,"29":-0.31999999999999995,"3":-0.76,"30":0.24,"31":0.06000000000000005,"4":0.6000000000000001,"5":0.1399999999999999,"6":-0.96,"7":-0.96,"8":0.72,"9":0.8,"lenght":32},"13":{"0":-0.48,"1":-0.42000000000000004,"10":0.21999999999999997,"11":0.1200000000000001,"12":-0.88,"13":0.72,"14":-0.4,"15":0.45999999999999996,"16":-0.14,"17":-0.74,"18":-0.7,"19":0.10000000000000009,"2":-0.6599999999999999,"20":-0.06000000000000005,"21":0.6399999999999999,"22":0.8,"23":0.1200000000000001,"24":-0.98,"25":-0.09999999999999998,"26":-0.19999999999999996,"27":-0.28,"28":-0.38,"29":0.08000000000000007,"3":0.17999999999999994,"30":-0.18000000000000005,"31":-0.8,"4":0.74,"5":-0.62,"6":0.21999999999999997,"7":0.45999999999999996,"8":0.21999999999999997,"9":0.8999999999999999,"lenght":32},"14":{"0":0.6599999999999999,"1":0.15999999999999992,"10":0.8999999999999999,"11":0.6799999999999999,"12":-0.06000000000000005,"13":0.54,"14":-0.8200000000000001,"15":0.8,"16":0.8200000000000001,"17":-0.52,"18":-0.07999999999999996,"19":0.8,"2":0.3799999999999999,"20":-0.86,"21":0.76,"22":0.96,"23":-0.84,"24":-0.33999999999999997,"25":0.8,"26":0.9199999999999999,"27":-0.6599999999999999,"28":-0.12,"29":-0.26,"3":-0.56,"30":-0.45999999999999996,"31":-0.45999999999999996,"4":0.56,"5":-0.4,"6":-0.06000000000000005,"7":-0.21999999999999997,"8":0.54,"9":-0.8200000000000001,"lenght":32},"15":{"0":0.8999999999999999,"1":0.9199999999999999,"10":0.8200000000000001,"11":0.15999999999999992,"12":0.8,"13":0.040000000000000036,"14":-0.040000000000000036,"15":-0.33999999999999997,"16":-0.42000000000000004,"17":-0.07999999999999996,"18":-0.54,"19":0.76,"2":-0.96,"20":-0.30000000000000004,"21":0.45999999999999996,"22":-0.040000000000000036,"23":-0.6,"24":0.26,"25":-0.12,"26":-0.26,"27":-0.86,"28":-0.33999999999999997,"29":-0.6799999999999999,"3":-0.5,"30":0.72,"31":0.6000000000000001,"4":0.56,"5":-0.020000000000000018,"6":0.30000000000000004,"7":-0.86,"8":-0.8,"9":-0.76,"lenght":32},"2":{"0":0.549524519,"1":-0.7044675469999999,"10":-0.040000000000000036,"11":-0.84,"12":0.5,"13":-0.62,"14":0.32000000000000006,"15":-0.88,"16":0.98,"17":0.28,"18":-0.9,"19":0.8600000000000001,"2":0.5436299536,"20":0.74,"21":-0.92,"22":0.8999999999999999,"23":-0.19999999999999996,"24":0.30000000000000004,"25":-0.14,"26":-0.4,"27":-0.98,"28":-0.56,"29":0.020000000000000018,"3":0.03970692780000007,"30":-0.21999999999999997,"31":0.6200000000000001,"4":-0.3482582061999999,"5":0.8458130184,"6":0.30000000000000004,"7":-0.26,"8":0.54,"9":0.17999999999999994,"lenght":32},"3":{"0":0.31761421180000005,"1":0.12130407459999998,"10":0.94,"11":0.1399999999999999,"12":0.9199999999999999,"13":0.26,"14":-0.7,"15":-0.06000000000000005,"16":-0.45999999999999996,"17":-0.6,"18":-0.18000000000000005,"19":-0.72,"2":-0.9030720236,"20":-0.52,"21":-0.28,"22":0.10000000000000009,"23":-0.16000000000000003,"24":-0.38,"25":-0.26,"26":-0.14,"27":0.06000000000000005,"28":0.76,"29":-0.31999999999999995,"3":-0.6120286576,"30":0.74,"31":-0.6,"4":0.07096940400000004,"5":0.039824052,"6":0.54,"7":-0.26,"8":0.6399999999999999,"9":-0.5,"lenght":32},"4":{"0":-0.15363851980000004,"1":0.1793066012,"10":0.06000000000000005,"11":0.28,"12":0.040000000000000036,"13":0.3799999999999999,"14":-0.78,"15":0.5800000000000001,"16":0.78,"17":-0.92,"18":-0.07999999999999996,"19":0.32000000000000006,"2":-0.14263014439999996,"20":-0.19999999999999996,"21":0.06000000000000005,"22":0.19999999999999996,"23":0.41999999999999993,"24":0.8,"25":0.10000000000000009,"26":0.54,"27":-0.4,"28":0.78,"29":0.28,"3":-0.4424942902000001,"30":-0.96,"31":0.6799999999999999,"4":-0.1451518002,"5":0.7101436360000001,"6":0.8200000000000001,"7":-0.12,"8":-0.7,"9":0.76,"lenght":32},"5":{"0":-0.4311835428,"1":-0.23874466879999995,"10":0.6799999999999999,"11":0.3799999999999999,"12":0.78,"13":0.8999999999999999,"14":-0.98,"15":0.5800000000000001,"16":-1.0,"17":0.98,"18":0.94,"19":0.8400000000000001,"2":-0.093353711,"20":0.040000000000000036,"21":0.1399999999999999,"22":-0.6799999999999999,"23":0.8799999999999999,"24":-0.76,"25":0.8600000000000001,"26":0.52,"27":0.06000000000000005,"28":0.1399999999999999,"29":0.56,"3":-0.06460914319999998,"30":-0.26,"31":0.30000000000000004,"4":0.29496658019999994,"5":-0.2518096178,"6":-0.7,"7":0.3600000000000001,"8":-0.6599999999999999,"9":0.3600000000000001,"lenght":32},"6":{"0":0.09288220840000003,"1":-0.20137840999999995,"10":-0.14,"11":0.19999999999999996,"12":0.9199999999999999,"13":-0.12,"14":0.8200000000000001,"15":0.9199999999999999,"16":-0.14,"17":0.76,"18":-0.18000000000000005,"19":-0.06000000000000005,"2":-0.7905294820000001,"20":0.94,"21":0.1399999999999999,"22":-0.18000000000000005,"23":0.21999999999999997,"24":-0.96,"25":-0.6599999999999999,"26":-0.7,"27":-0.78,"28":0.8999999999999999,"29":0.040000000000000036,"3":0.1531456378,"30":0.52,"31":0.76,"4":0.08996709840000003,"5":-0.08543008340000002,"6":0.30000000000000004,"7":-0.56,"8":0.41999999999999993,"9":-0.020000000000000018,"lenght":32},"7":{"0":0.037949651999999945,"1":-0.43499857140000003,"10":0.8600000000000001,"11":0.8999999999999999,"12":-0.07999999999999996,"13":0.7,"14":-0.12,"15":-0.16000000000000003,"16":-0.5,"17":0.7,"18":0.78,"19":-0.54,"2":0.12161218139999991,"20":-0.16000000000000003,"21":0.6599999999999999,"22":0.6799999999999999,"23":-0.12,"24":0.040000000000000036,"25":0.98,"26":0.10000000000000009,"27":-1.0,"28":-0.92,"29":0.6599999999999999,"3":-0.49042039439999996,"30":0.76,"31":0.6799999999999999,"4":-0.06729164359999996,"5":-0.4986460248,"6":-0.88,"7":-0.33999999999999997,"8":0.98,"9":-0.96,"lenght":32},"8":{"0":0.8799999999999999,"1":-0.5,"10":0.45999999999999996,"11":-0.45999999999999996,"12":0.43999999999999995,"13":-0.6599999999999999,"14":-0.5800000000000001,"15":0.94,"16":-0.96,"17":-0.78,"18":-0.6,"19":0.9199999999999999,"2":0.3600000000000001,"20":-0.07999999999999996,"21":0.1399999999999999,"22":0.8400000000000001,"23":0.96,"24":-0.84,"25":0.98,"26":0.96,"27":-0.76,"28":0.6399999999999999,"29":-0.24,"3":0.1200000000000001,"30":-0.040000000000000036,"31":-0.42000000000000004,"4":0.5,"5":-0.45999999999999996,"6":-0.18000000000000005,"7":-0.48,"8":-0.42000000000000004,"9":-0.30000000000000004,"lenght":32},"9":{"0":0.26,"1":-0.6599999999999999,"10":0.040000000000000036,"11":0.72,"12":0.17999999999999994,"13":0.48,"14":-0.30000000000000004,"15":0.24,"16":-0.26,"17":-0.84,"18":-0.8,"19":-0.30000000000000004,"2":0.7,"20":0.30000000000000004,"21":0.10000000000000009,"22":-0.33999999999999997,"23":0.45999999999999996,"24":0.08000000000000007,"25":0.6799999999999999,"26":-0.24,"27":0.78,"28":0.48,"29":0.72,"3":0.8,"30":-0.64,"31":0.8,"4":-0.12,"5":-0.45999999999999996,"6":-0.6799999999999999,"7":-0.5,"8":-0.72,"9":0.8,"lenght":32},"lenght":16},"1":{"0":{"0":0.47116427539999994,"1":0.36367501320000006,"10":0.48,"11":-0.7,"12":0.5800000000000001,"13":0.78,"2":-0.634046322,"3":-0.07146586900000002,"4":0.1746905348,"5":-0.45119812219999994,"6":0.15999999999999992,"7":-0.09999999999999998,"8":0.3799999999999999,"9":0.3600000000000001,"lenght":14},"1":{"0":0.2781875787999999,"1":0.14350699199999994,"10":-0.98,"11":0.10000000000000009,"12":0.3400000000000001,"13":0.43999999999999995,"2":-0.361942791,"3":0.5128338678,"4":0.42089784880000003,"5":0.3330237892000001,"6":-0.6799999999999999,"7":-0.07999999999999996,"8":-0.64,"9":0.5,"lenght":14},"10":{"0":0.6000000000000001,"1":0.32000000000000006,"10":-0.8200000000000001,"11":-0.06000000000000005,"12":-0.24,"13":-0.6,"2":-0.64,"3":0.24,"4":-0.31999999999999995,"5":0.17999999999999994,"6":-0.30000000000000004,"7":-0.38,"8":0.3400000000000001,"9":-0.26,"lenght":14},"11":{"0":0.3400000000000001,"1":0.06000000000000005,"10":-0.6,"11":0.5,"12":-1.0,"13":-0.48,"2":0.6599999999999999,"3":0.5,"4":0.9199999999999999,"5":-0.94,"6":0.5800000000000001,"7":0.0,"8":0.1399999999999999,"9":0.45999999999999996,"lenght":14},"12":{"0":0.56,"1":0.6599999999999999,"10":0.32000000000000006,"11":0.72,"12":0.0,"13":-0.43999999999999995,"2":-0.26,"3":0.17999999999999994,"4":-0.020000000000000018,"5":-0.86,"6":0.45999999999999996,"7":-0.30000000000000004,"8":0.3400000000000001,"9":0.21999999999999997,"lenght":14},"13":{"0":0.7,"1":0.76,"10":0.8400000000000001,"11":0.8999999999999999,"12":0.7,"13":0.28,"2":-0.040000000000000036,"3":0.06000000000000005,"4":-0.18000000000000005,"5":0.6599999999999999,"6":0.6000000000000001,"7":0.8,"8":-0.24,"9":0.17999999999999994,"lenght":14},"14":{"0":0.41999999999999993,"1":0.7,"10":0.040000000000000036,"11":0.15999999999999992,"12":0.98,"13":0.41999999999999993,"2":-0.16000000000000003,"3":-0.98,"4":0.3600000000000001,"5":-0.38,"6":-0.76,"7":-0.6599999999999999,"8":-0.21999999999999997,"9":-0.24,"lenght":14},"15":{"0":0.9199999999999999,"1":-0.020000000000000018,"10":0.45999999999999996,"11":0.43999999999999995,"12":-0.48,"13":-0.6599999999999999,"2":0.98,"3":0.6200000000000001,"4":0.78,"5":0.98,"6":0.72,"7":-0.38,"8":0.6399999999999999,"9":0.32000000000000006,"lenght":14},"16":{"0":0.3400000000000001,"1":0.26,"10":0.7,"11":0.94,"12":0.8799999999999999,"13":0.78,"2":0.6200000000000001,"3":0.8,"4":-0.040000000000000036,"5":0.5,"6":-0.12,"7":-0.6799999999999999,"8":-0.88,"9":0.1200000000000001,"lenght":14},"17":{"0":0.10000000000000009,"1":-0.09999999999999998,"10":0.3400000000000001,"11":-0.12,"12":-0.16000000000000003,"13":-0.19999999999999996,"2":0.19999999999999996,"3":-0.94,"4":0.8799999999999999,"5":-0.78,"6":-0.26,"7":0.6799999999999999,"8":-0.8,"9":-0.54,"lenght":14},"18":{"0":-0.6799999999999999,"1":-0.6,"10":0.98,"11":-0.54,"12":0.5800000000000001,"13":-0.28,"2":-0.8200000000000001,"3":0.6799999999999999,"4":0.6599999999999999,"5":0.8,"6":-0.48,"7":-0.38,"8":0.30000000000000004,"9":0.3999999999999999,"lenght":14},"19":{"0":-0.5800000000000001,"1":-0.5,"10":-0.98,"11":0.19999999999999996,"12":-0.12,"13":0.3600000000000001,"2":-0.5,"3":-0.43999999999999995,"4":0.41999999999999993,"5":0.72,"6":-0.36,"7":0.30000000000000004,"8":0.94,"9":0.3799999999999999,"lenght":14},"2":{"0":-0.21346593880000003,"1":-0.5747101316000001,"10":-0.5,"11":-0.38,"12":-0.42000000000000004,"13":0.98,"2":0.4736453798,"3":-0.003995420200000044,"4":0.5784355062000001,"5":0.07512228940000001,"6":0.020000000000000018,"7":0.6000000000000001,"8":-0.8200000000000001,"9":-0.8200000000000001,"lenght":14},"20":{"0":-0.92,"1":0.72,"10":-0.52,"11":-0.43999999999999995,"12":-0.88,"13":0.5,"2":0.19999999999999996,"3":-0.5800000000000001,"4":0.15999999999999992,"5":0.3799999999999999,"6":0.1399999999999999,"7":-0.18000000000000005,"8":-0.78,"9":0.6599999999999999,"lenght":14},"21":{"0":0.040000000000000036,"1":0.7,"10":0.98,"11":-0.52,"12":0.15999999999999992,"13":-1.0,"2":-0.78,"3":-0.5,"4":0.24,"5":-0.26,"6":0.06000000000000005,"7":-0.33999999999999997,"8":0.5,"9":-0.26,"lenght":14},"22":{"0":0.6799999999999999,"1":0.10000000000000009,"10":-0.09999999999999998,"11":0.32000000000000006,"12":0.08000000000000007,"13":0.3999999999999999,"2":-0.5800000000000001,"3":0.78,"4":0.8600000000000001,"5":-0.33999999999999997,"6":0.24,"7":0.040000000000000036,"8":-0.94,"9":-0.62,"lenght":14},"23":{"0":0.8999999999999999,"1":0.19999999999999996,"10":-0.09999999999999998,"11":0.45999999999999996,"12":-0.62,"13":-0.12,"2":0.94,"3":0.98,"4":0.94,"5":-0.8200000000000001,"6":-0.52,"7":-0.76,"8":0.96,"9":-0.42000000000000004,"lenght":14},"24":{"0":0.94,"1":0.54,"10":-0.4,"11":-0.88,"12":-0.92,"13":0.5,"2":0.94,"3":0.6399999999999999,"4":0.6799999999999999,"5":0.3999999999999999,"6":-0.54,"7":0.56,"8":-0.94,"9":0.7,"lenght":14},"25":{"0":-0.5,"1":-0.8,"10":0.6799999999999999,"11":0.08000000000000007,"12":0.52,"13":-0.4,"2":0.94,"3":-0.6,"4":-0.54,"5":0.8999999999999999,"6":0.41999999999999993,"7":0.43999999999999995,"8":0.1200000000000001,"9":-0.06000000000000005,"lenght":14},"26":{"0":-0.45999999999999996,"1":0.8999999999999999,"10":0.74,"11":-0.020000000000000018,"12":-0.64,"13":0.3799999999999999,"2":-0.48,"3":0.52,"4":-0.5,"5":-0.54,"6":0.15999999999999992,"7":-0.8200000000000001,"8":-0.09999999999999998,"9":-0.33999999999999997,"lenght":14},"27":{"0":-0.86,"1":0.48,"10":-0.36,"11":0.94,"12":-0.56,"13":-0.6599999999999999,"2":0.94,"3":-0.36,"4":0.7,"5":0.8799999999999999,"6":-0.92,"7":0.19999999999999996,"8":-0.18000000000000005,"9":0.5,"lenght":14},"28":{"0":0.020000000000000018,"1":0.020000000000000018,"10":0.7,"11":-0.07999999999999996,"12":0.020000000000000018,"13":-0.52,"2":0.98,"3":0.56,"4":0.96,"5":-0.5,"6":0.10000000000000009,"7":0.5,"8":-0.98,"9":0.30000000000000004,"lenght":14},"29":{"0":-0.06000000000000005,"1":0.3799999999999999,"10":0.8600000000000001,"11":-0.38,"12":0.41999999999999993,"13":-0.5,"2":-0.07999999999999996,"3":0.10000000000000009,"4":0.9199999999999999,"5":-0.14,"6":-0.21999999999999997,"7":-0.33999999999999997,"8":-0.26,"9":-0.12,"lenght":14},"3":{"0":-0.4499156924,"1":0.9443851581999999,"10":-0.4,"11":0.6399999999999999,"12":-0.24,"13":0.6599999999999999,"2":-0.631876282,"3":-0.600303511,"4":0.10747457559999996,"5":0.21234188619999997,"6":0.8799999999999999,"7":-0.38,"8":-0.76,"9":0.26,"lenght":14},"30":{"0":-0.43999999999999995,"1":0.8799999999999999,"10":0.41999999999999993,"11":0.43999999999999995,"12":-0.30000000000000004,"13":-0.84,"2":0.8799999999999999,"3":0.6000000000000001,"4":0.94,"5":0.8600000000000001,"6":-0.8,"7":0.8999999999999999,"8":0.41999999999999993,"9":-0.6599999999999999,"lenght":14},"31":{"0":0.3999999999999999,"1":0.72,"10":-0.28,"11":0.26,"12":-0.84,"13":0.6200000000000001,"2":0.6799999999999999,"3":-0.64,"4":-0.86,"5":-0.4,"6":0.45999999999999996,"7":-0.94,"8":0.45999999999999996,"9":-0.76,"lenght":14},"4":{"0":-0.173439724,"1":-0.2836229892,"10":0.040000000000000036,"11":-0.8200000000000001,"12":0.54,"13":0.54,"2":-0.28382573440000003,"3":0.03072813759999997,"4":0.8222074229999999,"5":0.8334877991999999,"6":0.30000000000000004,"7":-0.6,"8":-0.040000000000000036,"9":-0.6799999999999999,"lenght":14},"5":{"0":-0.09413459680000003,"1":0.22137169899999998,"10":-0.98,"11":-0.92,"12":0.7,"13":0.6599999999999999,"2":-0.5493273764,"3":-0.40018091879999995,"4":-0.21058435879999995,"5":0.6253631584,"6":-0.43999999999999995,"7":-0.6599999999999999,"8":-0.19999999999999996,"9":-0.56,"lenght":14},"6":{"0":-0.21999999999999997,"1":0.52,"10":0.040000000000000036,"11":-0.30000000000000004,"12":-0.42000000000000004,"13":-0.9,"2":0.32000000000000006,"3":-0.43999999999999995,"4":0.6399999999999999,"5":0.45999999999999996,"6":-0.040000000000000036,"7":0.6000000000000001,"8":0.74,"9":-0.74,"lenght":14},"7":{"0":0.94,"1":0.15999999999999992,"10":-0.9,"11":-0.5,"12":-0.38,"13":-0.88,"2":0.6399999999999999,"3":0.78,"4":-0.6799999999999999,"5":0.26,"6":-0.43999999999999995,"7":-0.28,"8":0.7,"9":-0.84,"lenght":14},"8":{"0":0.6399999999999999,"1":0.3600000000000001,"10":0.15999999999999992,"11":0.3600000000000001,"12":0.24,"13":0.26,"2":0.78,"3":-0.5800000000000001,"4":-0.12,"5":-0.86,"6":-0.98,"7":0.56,"8":0.6000000000000001,"9":-0.020000000000000018,"lenght":14},"9":{"0":0.10000000000000009,"1":-0.14,"10":0.08000000000000007,"11":-0.94,"12":0.6599999999999999,"13":-0.78,"2":0.3600000000000001,"3":-0.92,"4":-0.98,"5":-0.96,"6":0.8799999999999999,"7":-0.64,"8":-0.64,"9":0.48,"lenght":14},"lenght":32},"2":{"0":{"0":-0.626788231,"1":0.5319907719999999,"2":0.09407749060000001,"3":0.08636695999999995,"4":-0.546494837,"5":0.41451299739999997,"6":-0.31999999999999995,"7":0.26,"lenght":8},"1":{"0":-0.8245107506,"1":0.043099281799999944,"2":-0.40159203320000003,"3":-0.5448772208,"4":0.45679577140000005,"5":0.03388254239999999,"6":-0.9,"7":0.6000000000000001,"lenght":8},"10":{"0":0.6599999999999999,"1":-0.36,"2":-0.86,"3":-0.5,"4":0.48,"5":0.8400000000000001,"6":0.6000000000000001,"7":-0.6,"lenght":8},"11":{"0":-0.48,"1":0.3600000000000001,"2":0.8400000000000001,"3":0.8200000000000001,"4":-0.33999999999999997,"5":-0.28,"6":0.24,"7":-0.5,"lenght":8},"12":{"0":-0.6799999999999999,"1":-0.09999999999999998,"2":0.56,"3":0.43999999999999995,"4":-0.94,"5":0.19999999999999996,"6":-0.8,"7":-0.84,"lenght":8},"13":{"0":0.24,"1":0.08000000000000007,"2":0.21999999999999997,"3":-0.18000000000000005,"4":-0.24,"5":0.1200000000000001,"6":0.98,"7":0.45999999999999996,"lenght":8},"2":{"0":-0.0790255234,"1":0.011356047400000013,"2":0.1502595538000001,"3":0.5486585533999999,"4":-0.44640600379999995,"5":-0.174023212,"6":0.06000000000000005,"7":0.6000000000000001,"lenght":8},"3":{"0":-0.3783438362,"1":0.49896921059999993,"2":0.35885829820000004,"3":-0.5996712120000001,"4":0.410298103,"5":-0.23772606000000002,"6":-0.5,"7":-0.6,"lenght":8},"4":{"0":0.2652017576,"1":-0.5295711268,"2":0.3948967823999999,"3":-0.3124182802,"4":-0.08938314700000004,"5":0.41235349320000003,"6":0.5,"7":0.54,"lenght":8},"5":{"0":0.2678791532,"1":-0.3021713774,"2":-0.8021459236,"3":0.10395664380000008,"4":-0.7042946062,"5":0.37935923939999994,"6":0.74,"7":0.78,"lenght":8},"6":{"0":0.5,"1":0.020000000000000018,"2":-0.26,"3":-0.98,"4":0.8,"5":0.8,"6":-0.33999999999999997,"7":-0.94,"lenght":8},"7":{"0":0.8799999999999999,"1":0.6399999999999999,"2":0.74,"3":-0.6,"4":0.30000000000000004,"5":-0.74,"6":0.8400000000000001,"7":0.3999999999999999,"lenght":8},"8":{"0":-0.19999999999999996,"1":0.6000000000000001,"2":-0.38,"3":0.06000000000000005,"4":-0.94,"5":-0.88,"6":-0.4,"7":0.72,"lenght":8},"9":{"0":0.040000000000000036,"1":-0.96,"2":0.8400000000000001,"3":0.06000000000000005,"4":0.56,"5":-0.38,"6":0.8999999999999999,"7":-0.88,"lenght":8},"lenght":14},"3":{"0":{"0":-0.1901727658,"1":0.27276410379999994,"2":0.6002699622000001,"3":-0.10719828920000002,"lenght":4},"1":{"0":-0.5123700376,"1":-0.5779606728,"2":0.5174602642000001,"3":-0.29477604139999997,"lenght":4},"2":{"0":-0.11398388420000005,"1":-0.41488357140000004,"2":0.1681931692,"3":0.09687441400000008,"lenght":4},"3":{"0":0.6249550278,"1":0.22049127219999995,"2":-0.3893418348,"3":0.5481567854,"lenght":4},"4":{"0":-0.287079854,"1":-0.4084450518,"2":-0.35075168360000003,"3":0.33904681020000005,"lenght":4},"5":{"0":0.4439084414000001,"1":0.03512746959999999,"2":-0.059614755999999935,"3":-0.1002374822,"lenght":4},"6":{"0":-0.78,"1":-0.28,"2":-0.54,"3":-0.74,"lenght":4},"7":{"0":0.3400000000000001,"1":-0.8200000000000001,"2":0.78,"3":-0.6599999999999999,"lenght":4},"lenght":8},"4":{"0":{"0":0.7953640052000001,"1":0.4087405714,"10":0.19999999999999996,"11":-0.020000000000000018,"12":0.19999999999999996,"13":0.3400000000000001,"14":-0.72,"15":0.52,"2":-0.042575961600000045,"3":0.4805037788,"4":-0.20522010140000002,"5":-0.5856058862,"6":-0.42676245079999997,"7":-0.42969417439999996,"8":0.45999999999999996,"9":-0.9,"lenght":16},"1":{"0":0.4710203536,"1":0.6574307184,"10":-0.48,"11":-0.8200000000000001,"12":-1.0,"13":0.5800000000000001,"14":0.3600000000000001,"15":-0.07999999999999996,"2":0.34269005140000003,"3":0.19197538139999998,"4":-0.5745681976,"5":0.47734821660000004,"6":-0.8383580214,"7":0.02186175960000003,"8":-0.6599999999999999,"9":-0.21999999999999997,"lenght":16},"2":{"0":-0.13958702400000003,"1":0.594890295,"10":-0.12,"11":0.040000000000000036,"12":-0.54,"13":0.17999999999999994,"14":-0.43999999999999995,"15":-0.14,"2":0.8709085698000001,"3":0.3123214174,"4":-0.6404724236,"5":-0.5851963744,"6":0.2835937464,"7":0.15012150159999996,"8":-0.21999999999999997,"9":-0.92,"lenght":16},"3":{"0":-0.259105736,"1":0.3577351259999999,"10":0.9199999999999999,"11":-0.6,"12":-0.62,"13":-0.6799999999999999,"14":0.32000000000000006,"15":-0.78,"2":-0.03379530959999999,"3":0.7596893574,"4":0.3223350274,"5":0.5586752996000001,"6":0.770311685,"7":-0.04279115619999996,"8":0.3600000000000001,"9":0.76,"lenght":16},"lenght":4},"lenght":5}}