{"biases":{"0":{"0":0.13376024047,"1":0.4557121179700001,"2":0.3866434831999997,"3":-0.14517271202999998,"4":-0.1675139671699999,"5":-0.10573788575000015,"lenght":6},"1":{"0":-0.1507828223099998,"1":-0.7274616124699999,"2":-0.70608672596,"3":0.5076835541999996,"4":-0.08271143029999983,"5":-0.20839446080999985,"6":-0.34904809923,"7":0.08266464598999994,"lenght":8},"2":{"0":-0.7869774767699999,"1":-0.5457676373899996,"2":-0.8568811329299999,"3":-0.43193333381999965,"lenght":4},"lenght":3},"weights":{"0":{"0":{"0":-0.17290726322999972,"1":-0.01646809483999989,"2":0.7006426947899997,"3":0.3170711988799998,"4":-0.39549598030999966,"5":0.9229747054199999,"lenght":6},"1":{"0":-0.51788474055,"1":0.71370064785,"2":-0.010640188270000128,"3":0.7129920968699999,"4":-0.41815092567999973,"5":-0.1549257438399998,"lenght":6},"2":{"0":0.33935762132000025,"1":-0.5709736288400001,"2":0.3456317926700001,"3":-0.48964942223000013,"4":-0.5679762301799999,"5":0.4863956280399997,"lenght":6},"3":{"0":-0.2524913518899998,"1":0.37732770178999986,"2":0.30031877267000007,"3":-0.005463730319999943,"4":0.39977191422999997,"5":-0.15909884393000018,"lenght":6},"lenght":4},"1":{"0":{"0":0.18542078437999981,"1":-0.028605403039999477,"2":-0.7212412623299999,"3":0.2488081449899998,"4":-0.40712446478999986,"5":-0.5433197691599998,"6":0.21563168615000017,"7":0.038418686459999685,"lenght":8},"1":{"0":-0.8794443327699999,"1":0.1636640999899999,"2":-0.6137070573799998,"3":-0.31326381865000014,"4":0.30739670346999987,"5":-0.08586903239000016,"6":0.1358867591199997,"7":0.6512204746899998,"lenght":8},"2":{"0":-0.3522671720299999,"1":0.8342787481499999,"2":0.57364817699,"3":0.33043494155999953,"4":-0.43397874985,"5":-0.22007367645999987,"6":-0.38834100956999995,"7":0.36123842835000003,"lenght":8},"3":{"0":-0.20891239472999956,"1":-0.19664439601000003,"2":0.14364487675000015,"3":0.05835951449000001,"4":0.5382611436899999,"5":0.21298011703999975,"6":-0.85357583952,"7":-0.34509517772999987,"lenght":8},"4":{"0":-0.34882528599999985,"1":-0.8997108695299999,"2":0.6072358600599999,"3":-0.42562685798999966,"4":-0.4430306386899998,"5":-0.20554911426999997,"6":0.5236918284700001,"7":-0.5289520786599996,"lenght":8},"5":{"0":0.7084378804299998,"1":0.07509100340999975,"2":-0.007432557789999961,"3":0.030617923419999915,"4":-0.7356717966599997,"5":-0.5532395649499997,"6":0.03216129142000024,"7":-0.13113896728999974,"lenght":8},"lenght":6},"2":{"0":{"0":-0.44285797432999996,"1":-0.3883221425000001,"2":0.21988843544999964,"3":-0.24367036855000018,"lenght":4},"1":{"0":0.1995563548,"1":-0.7840604554799998,"2":-0.7415275145399998,"3":-0.4997762691899999,"lenght":4},"2":{"0":0.37941966155999973,"1":0.5268028787699998,"2":0.11642855308000022,"3":0.2952172702699998,"lenght":4},"3":{"0":0.36969824295999976,"1":-0.5175293545399998,"2":0.6926737517999999,"3":0.3131676047799994,"lenght":4},"4":{"0":0.11980487262000006,"1":-0.054528185500000104,"2":0.48092175983999996,"3":-0.4111510146299998,"lenght":4},"5":{"0":-0.6327142892899997,"1":-0.7560045651199999,"2":0.5393669087899999,"3":-0.8621860840399999,"lenght":4},"6":{"0":-0.4330607905499997,"1":-0.39067179838999977,"2":-0.2939188190099997,"3":-0.7021382673199998,"lenght":4},"7":{"0":-0.7623332034599998,"1":-0.2263999514299997,"2":-0.4931653669099998,"3":-0.2951911772799999,"lenght":4},"lenght":8},"lenght":3}}