{"biases":{"0":{"0":0.06000000000000005,"1":0.8400000000000001,"2":-0.30000000000000004,"3":0.56,"4":0.040000000000000036,"5":0.96,"lenght":6},"1":{"0":-0.07999999999999996,"1":-0.14,"2":0.28,"3":-0.33999999999999997,"lenght":4},"2":{"0":-0.86,"1":0.94,"10":0.9199999999999999,"11":0.020000000000000018,"12":-0.040000000000000036,"13":-0.54,"14":0.1399999999999999,"15":-0.040000000000000036,"2":-0.92,"3":0.8400000000000001,"4":-0.84,"5":-0.36,"6":0.52,"7":-0.33999999999999997,"8":0.15999999999999992,"9":-0.38,"lenght":16},"lenght":3},"weights":{"0":{"0":{"0":-0.18000000000000005,"1":-0.19999999999999996,"2":-0.76,"3":0.72,"4":0.56,"5":-0.6,"lenght":6},"1":{"0":-0.94,"1":-0.62,"2":0.3400000000000001,"3":0.06000000000000005,"4":-0.86,"5":0.78,"lenght":6},"10":{"0":0.040000000000000036,"1":-0.5800000000000001,"2":0.56,"3":-0.76,"4":-0.38,"5":-0.52,"lenght":6},"11":{"0":0.0,"1":0.21999999999999997,"2":-0.5,"3":0.17999999999999994,"4":-0.78,"5":0.5800000000000001,"lenght":6},"12":{"0":0.52,"1":0.0,"2":-0.18000000000000005,"3":0.52,"4":-0.7,"5":0.48,"lenght":6},"13":{"0":0.5800000000000001,"1":0.1200000000000001,"2":-0.040000000000000036,"3":-0.31999999999999995,"4":0.28,"5":0.8600000000000001,"lenght":6},"14":{"0":0.30000000000000004,"1":-0.28,"2":0.8600000000000001,"3":-0.54,"4":0.48,"5":0.3600000000000001,"lenght":6},"15":{"0":-0.07999999999999996,"1":0.56,"2":0.8,"3":0.54,"4":0.8,"5":-0.5800000000000001,"lenght":6},"2":{"0":0.1200000000000001,"1":-0.38,"2":0.48,"3":-0.64,"4":0.0,"5":0.5,"lenght":6},"3":{"0":-0.18000000000000005,"1":-0.98,"2":0.3600000000000001,"3":0.41999999999999993,"4":0.5,"5":0.26,"lenght":6},"4":{"0":-0.94,"1":0.48,"2":-0.74,"3":0.5,"4":-0.72,"5":-0.7,"lenght":6},"5":{"0":-0.07999999999999996,"1":-0.86,"2":-0.86,"3":-0.8,"4":0.8600000000000001,"5":-0.24,"lenght":6},"6":{"0":-0.4,"1":-0.020000000000000018,"2":0.1399999999999999,"3":-0.020000000000000018,"4":0.08000000000000007,"5":-0.6599999999999999,"lenght":6},"7":{"0":-0.21999999999999997,"1":0.24,"2":-1.0,"3":-0.74,"4":0.6000000000000001,"5":0.0,"lenght":6},"8":{"0":0.76,"1":-0.56,"2":-0.94,"3":-0.84,"4":-0.09999999999999998,"5":-0.38,"lenght":6},"9":{"0":0.43999999999999995,"1":-0.040000000000000036,"2":-0.9,"3":0.7,"4":-0.54,"5":0.41999999999999993,"lenght":6},"lenght":16},"1":{"0":{"0":-0.8200000000000001,"1":-0.43999999999999995,"2":-1.0,"3":-0.96,"lenght":4},"1":{"0":0.1399999999999999,"1":-0.7,"2":0.52,"3":0.76,"lenght":4},"2":{"0":0.41999999999999993,"1":0.52,"2":-0.56,"3":-0.28,"lenght":4},"3":{"0":-0.5800000000000001,"1":-0.19999999999999996,"2":-0.52,"3":-0.72,"lenght":4},"4":{"0":-0.7,"1":0.0,"2":0.6599999999999999,"3":0.21999999999999997,"lenght":4},"5":{"0":0.6200000000000001,"1":-0.5,"2":-0.24,"3":0.41999999999999993,"lenght":4},"lenght":6},"2":{"0":{"0":-0.5800000000000001,"1":-0.6799999999999999,"10":0.8600000000000001,"11":0.3999999999999999,"12":-0.24,"13":0.3600000000000001,"14":0.15999999999999992,"15":-0.78,"2":-0.38,"3":-0.4,"4":0.9199999999999999,"5":-0.38,"6":-0.33999999999999997,"7":-0.9,"8":0.98,"9":0.21999999999999997,"lenght":16},"1":{"0":0.19999999999999996,"1":-0.30000000000000004,"10":0.8,"11":0.6799999999999999,"12":-0.56,"13":-0.88,"14":-0.64,"15":-0.12,"2":-0.48,"3":0.5,"4":-0.26,"5":0.21999999999999997,"6":0.76,"7":-0.64,"8":0.72,"9":0.5800000000000001,"lenght":16},"2":{"0":0.48,"1":-0.98,"10":0.08000000000000007,"11":0.26,"12":0.8600000000000001,"13":0.30000000000000004,"14":0.48,"15":0.06000000000000005,"2":-0.48,"3":-0.56,"4":-0.33999999999999997,"5":-0.78,"6":-0.43999999999999995,"7":-0.36,"8":0.45999999999999996,"9":0.45999999999999996,"lenght":16},"3":{"0":-1.0,"1":0.040000000000000036,"10":-0.28,"11":0.48,"12":0.1200000000000001,"13":-0.88,"14":0.3999999999999999,"15":0.6399999999999999,"2":0.6000000000000001,"3":0.78,"4":-0.74,"5":-0.5800000000000001,"6":-0.84,"7":0.020000000000000018,"8":-1.0,"9":0.0,"lenght":16},"lenght":4},"lenght":3}}