{"biases":{"0":{"0":-0.62,"1":0.26,"2":0.3799999999999999,"3":0.94,"4":-0.8,"5":0.94,"lenght":6},"1":{"0":-0.5800000000000001,"1":0.6399999999999999,"2":-0.28,"3":-0.31999999999999995,"4":0.10000000000000009,"5":0.17999999999999994,"6":-0.52,"7":0.30000000000000004,"lenght":8},"2":{"0":0.21999999999999997,"1":0.48,"2":0.74,"3":0.19999999999999996,"lenght":4},"lenght":3},"weights":{"0":{"0":{"0":-0.07999999999999996,"1":-0.43999999999999995,"2":0.9199999999999999,"3":-0.26,"4":-0.33999999999999997,"5":0.6399999999999999,"lenght":6},"1":{"0":0.94,"1":-0.84,"2":0.32000000000000006,"3":-0.45999999999999996,"4":0.6799999999999999,"5":0.98,"lenght":6},"2":{"0":0.72,"1":0.8799999999999999,"2":-0.040000000000000036,"3":0.7,"4":-0.30000000000000004,"5":-0.48,"lenght":6},"3":{"0":0.5,"1":-0.43999999999999995,"2":0.1200000000000001,"3":0.94,"4":-0.5,"5":0.7,"lenght":6},"lenght":4},"1":{"0":{"0":0.8,"1":-0.8200000000000001,"2":-0.48,"3":-0.21999999999999997,"4":0.96,"5":0.17999999999999994,"6":-0.5800000000000001,"7":0.8999999999999999,"lenght":8},"1":{"0":0.3400000000000001,"1":-0.19999999999999996,"2":0.5,"3":-0.92,"4":0.8200000000000001,"5":0.21999999999999997,"6":0.96,"7":-0.21999999999999997,"lenght":8},"2":{"0":0.98,"1":-0.33999999999999997,"2":0.30000000000000004,"3":0.48,"4":-0.74,"5":0.45999999999999996,"6":-0.54,"7":-0.24,"lenght":8},"3":{"0":0.15999999999999992,"1":-0.16000000000000003,"2":0.08000000000000007,"3":-0.45999999999999996,"4":-0.19999999999999996,"5":-0.6799999999999999,"6":-0.5,"7":0.6399999999999999,"lenght":8},"4":{"0":-0.5,"1":-0.94,"2":-0.5800000000000001,"3":-0.54,"4":-0.72,"5":-0.14,"6":0.41999999999999993,"7":0.6399999999999999,"lenght":8},"5":{"0":-0.30000000000000004,"1":-0.07999999999999996,"2":-0.24,"3":-0.48,"4":0.17999999999999994,"5":-0.28,"6":0.30000000000000004,"7":-0.8,"lenght":8},"lenght":6},"2":{"0":{"0":-0.96,"1":-0.4,"2":0.8600000000000001,"3":0.8799999999999999,"lenght":4},"1":{"0":-0.06000000000000005,"1":0.3999999999999999,"2":-0.43999999999999995,"3":-0.52,"lenght":4},"2":{"0":0.45999999999999996,"1":0.0,"2":-0.040000000000000036,"3":0.74,"lenght":4},"3":{"0":-0.09999999999999998,"1":0.41999999999999993,"2":-0.5800000000000001,"3":0.6000000000000001,"lenght":4},"4":{"0":0.3799999999999999,"1":0.17999999999999994,"2":-0.88,"3":0.6000000000000001,"lenght":4},"5":{"0":-0.06000000000000005,"1":-0.54,"2":0.8200000000000001,"3":0.3600000000000001,"lenght":4},"6":{"0":-0.9,"1":-0.45999999999999996,"2":0.08000000000000007,"3":-0.76,"lenght":4},"7":{"0":0.74,"1":-0.38,"2":-0.42000000000000004,"3":-0.18000000000000005,"lenght":4},"lenght":8},"lenght":3}}